SVM-light Version V6.02
0 # kernel type
3 # kernel parameter -d 
1 # kernel parameter -g 
1 # kernel parameter -s 
1 # kernel parameter -r 
empty# kernel parameter -u 
21 # highest feature index 
16384 # number of training documents 
8000 # number of support vectors plus 1 
-72.738832 # threshold b, each following line is a SV (starting with alpha*y)
-5.2150728627442995e-013 1:3 2:0 3:1455 4:139 5:86 6:0.60000002 7:0.60000002 8:36191 9:23316 10:0 11:0 12:0 13:0 14:0 15:4.1999998 16:6.8000002 17:44.400002 18:54 19:650 20:94 21:6 # 1
5.2150728627442995e-013 1:2 2:1 3:174 4:11 5:24 6:0.2 7:0.2 8:10271 9:8797 10:0 11:0 12:0 13:0 14:0 15:0 16:0 17:15.6 18:16.799999 19:1 20:6442 21:1871299 # 1
-5.2150728627442995e-013 1:39 2:56 3:1053 4:41 5:40 6:0.2 7:0.2 8:4447 9:14290 10:0 11:0 12:0 13:0 14:0 15:0.60000002 16:0.60000002 17:16.23 18:32.669998 19:372 20:95 21:5 # 1
5.2150728627442995e-013 1:1 2:0 3:206 4:15 5:30 6:0.2 7:0.2 8:3319 9:15828 10:0 11:0 12:0 13:0 14:0.2 15:0.40000001 16:0.40000001 17:15.6 18:16.799999 19:2 20:1113 21:1718144 # 1
-5.2150728627442995e-013 1:1 2:0 3:544 4:55 5:62 6:0.2 7:0.2 8:1943 9:19308 10:0 11:0 12:0 13:0 14:0.2 15:0.40000001 16:0.40000001 17:20.200001 18:18.6 19:400 20:97 21:3 # 1
5.2150728627442995e-013 1:5 2:4 3:675 4:46 5:36 6:0.2 7:0.2 8:4594 9:17850 10:0 11:0 12:0 13:0 14:0 15:0.60000002 16:2 17:21.200001 18:22.799999 19:4 20:614 21:970677 # 1
-5.2150728627442995e-013 1:5 2:4 3:809 4:72 5:62 6:0.2 7:0.2 8:5228 9:19660 10:1.6 11:2 12:3.6099999 13:12.02 14:0 15:4.6100001 16:4.6100001 17:15.63 18:53.509998 19:142 20:96 21:4 # 1
5.2150728627442995e-013 1:0 2:0 3:901 4:53 5:57 6:0.2 7:0.2 8:1300 9:20351 10:0 11:0 12:0 13:0 14:0 15:0.2 16:0.2 17:15.54 18:14.94 19:1.7 20:447 21:1041675 # 1
-5.2150728627442995e-013 1:3 2:2 3:1067 4:38 5:47 6:0.2 7:0.2 8:3671 9:26017 10:0 11:0 12:0 13:0 14:0 15:3.79 16:3.79 17:15.57 18:27.15 19:353 20:95 21:5 # 1
5.2150728627442995e-013 1:1 2:0 3:505 4:35 5:33 6:0.2 7:0.2 8:3027 9:21246 10:0 11:0 12:0 13:0 14:0 15:1.4 16:1.4 17:15.4 18:18 19:2.2 20:1861 21:1074888 # 1
-5.2150728627442995e-013 1:35 2:44 3:2500 4:76 5:65 6:1.2 7:1.6 8:10740 9:14939 10:0.80000001 11:0.80000001 12:0.80000001 13:0 14:0.2 15:0.80000001 16:0.80000001 17:96.599998 18:124.8 19:144 20:91 21:8 # 1
5.2150728627442995e-013 1:6 2:5 3:811 4:67 5:57 6:0.2 7:0.2 8:6642 9:23298 10:0 11:0 12:0 13:0 14:0 15:0.40000001 16:0.80000001 17:15.8 18:26.799999 19:4 20:372 21:978118 # 1
-5.2150728627442995e-013 1:1 2:0 3:2542 4:138 5:98 6:0.2 7:0.2 8:8835 9:17943 10:0 11:0 12:0 13:0 14:0 15:1.8 16:2.4000001 17:195 18:97.599998 19:618 20:93 21:7 # 1
5.2150728627442995e-013 1:1 2:1 3:512 4:47 5:44 6:0.40000001 7:0.40000001 8:92333 9:23899 10:0 11:0 12:0 13:0 14:0 15:7.1999998 16:7.1999998 17:38.599998 18:68.599998 19:1 20:465 21:982181 # 1
-5.2150728627442995e-013 1:47 2:48 3:4163 4:299 5:147 6:17.030001 7:14.23 8:177185 9:13850 10:0 11:0 12:0 13:0 14:0 15:2 16:3.01 17:745.28998 18:1324.65 19:5.5999999 20:1120 21:1775705 # 1
5.2150728627442995e-013 1:1 2:0 3:756 4:44 5:33 6:0.2 7:0.2 8:19561 9:13898 10:0 11:0 12:0 13:0 14:0 15:0 16:0 17:16.6 18:29.200001 19:1 20:520 21:993283 # 1
-5.2150728627442995e-013 1:6 2:3 3:1480 4:84 5:80 6:0.40000001 7:0.80000001 8:3808 9:46665 10:0 11:0 12:0 13:0 14:0 15:2.4000001 16:3.01 17:47.490002 18:86.370003 19:502 20:94 21:6 # 1
5.2150728627442995e-013 1:1 2:0 3:655 4:50 5:25 6:0.2 7:0.2 8:146677 9:13323 10:0 11:0 12:0 13:0 14:0 15:0.2 16:0.2 17:15.6 18:26.6 19:1.3 20:2988 21:1014718 # 1
-5.2150728627442995e-013 1:3 2:2 3:1894 4:122 5:116 6:0.2 7:0.2 8:5776 9:29548 10:2.5999999 11:5 12:5 13:0 14:0.60000002 15:4 16:4 17:15.6 18:53.599998 19:165 20:95 21:5 # 1
5.2150728627442995e-013 1:2 2:0 3:909 4:81 5:62 6:1 7:1 8:4380 9:16902 10:2.4000001 11:2.5999999 12:2.5999999 13:0 14:0 15:0.40000001 16:0.40000001 17:69.800003 18:70.400002 19:1 20:197 21:999130 # 1
-5.2150728627442995e-013 1:4 2:2 3:1218 4:135 5:78 6:0.40000001 7:0.60000002 8:8089 9:39394 10:0 11:0 12:0 13:0 14:0 15:0.2 16:0.2 17:32.73 18:43.509998 19:347 20:95 21:5 # 1
5.2150728627442995e-013 1:0 2:0 3:946 4:67 5:43 6:0.2 7:0.2 8:121879 9:14862 10:0 11:0 12:0 13:0 14:0 15:1 16:1 17:15.6 18:113.4 19:2.3 20:766 21:1032696 # 1
-5.2150728627442995e-013 1:7 2:4 3:1213 4:64 5:56 6:0.60000002 7:0.40000001 8:9159 9:27622 10:0 11:0 12:0 13:0 14:0 15:0.40000001 16:0.40000001 17:36.73 18:35.93 19:387 20:96 21:4 # 1
5.2150728627442995e-013 1:3 2:2 3:910 4:96 5:96 6:0.60000002 7:2 8:8324 9:17686 10:0 11:0 12:0 13:0 14:0 15:0.40000001 16:0.40000001 17:39.400002 18:51.200001 19:2.8 20:3025 21:1013448 # 1
-5.2150728627442995e-013 1:15 2:14 3:3082 4:156 5:125 6:0.2 7:0.2 8:11270 9:26333 10:0 11:0 12:0 13:0 14:0 15:4.6100001 16:4.6100001 17:18.440001 18:32.869999 19:637 20:93 21:7 # 1
5.2150728627442995e-013 1:1 2:1 3:1529 4:78 5:67 6:0.2 7:0.2 8:26507 9:41825 10:0.40000001 11:0.40000001 12:0.40000001 13:0 14:0 15:2.2 16:2.2 17:13.03 18:38.68 19:1.3 20:335 21:1017246 # 1
-5.2150728627442995e-013 1:9 2:8 3:3033 4:164 5:127 6:0.2 7:0.2 8:11198 9:28899 10:0 11:0 12:0 13:0 14:0.2 15:1.2 16:1.2 17:16.200001 18:125 19:540 20:91 21:9 # 1
5.2150728627442995e-013 1:5 2:4 3:730 4:66 5:55 6:0.40000001 7:1.8 8:21076 9:18606 10:2.4000001 11:2.4000001 12:2.4000001 13:0 14:1 15:0.40000001 16:0.40000001 17:32 18:46.400002 19:1 20:267 21:1016494 # 1
-5.2150728627442995e-013 1:19 2:17 3:3516 4:243 5:200 6:0.2 7:0.2 8:11558 9:30861 10:5.1999998 11:11.8 12:32 13:60.400002 14:0.2 15:27 16:28.4 17:16 18:94.800003 19:132 20:87 21:13 # 1
5.2150728627442995e-013 1:1 2:0 3:883 4:49 5:48 6:0.2 7:0.2 8:3049 9:13534 10:4.8099999 11:5.21 12:5.21 13:0 14:0.40000001 15:0.80000001 16:0.80000001 17:15.63 18:54.310001 19:1.3 20:162 21:1015463 # 1
-5.2150728627442995e-013 1:11 2:6 3:719 4:61 5:43 6:1.2 7:1.8 8:13076 9:15236 10:4.5999999 11:5 12:5 13:0 14:1 15:1.6 16:2.2 17:61.599998 18:75.800003 19:259 20:94 21:6 # 1
5.2150728627442995e-013 1:1 2:0 3:801 4:67 5:72 6:0.2 7:0.2 8:4584 9:19779 10:1.6 11:1.6 12:1.6 13:0 14:0.2 15:1.2 16:1.2 17:15.6 18:22.4 19:1 20:314 21:1016016 # 1
-5.2150728627442995e-013 1:23 2:21 3:2458 4:180 5:137 6:0.40000001 7:0.40000001 8:11664 9:33798 10:0 11:0 12:0 13:0 14:0 15:2.2 16:2.2 17:31.799999 18:187.8 19:362 20:94 21:6 # 1
5.2150728627442995e-013 1:1 2:0 3:652 4:27 5:28 6:0.40000001 7:1 8:2185 9:13897 10:1.2 11:1.2 12:1.2 13:0 14:0.2 15:1.4 16:1.4 17:32.400002 18:49 19:1.5 20:271 21:1016312 # 1
-5.2150728627442995e-013 1:4 2:2 3:1350 4:171 5:94 6:0.40000001 7:0.40000001 8:10284 9:51892 10:0 11:0 12:0 13:0 14:0.2 15:0.2 16:0.2 17:30.059999 18:41.880001 19:380 20:95 21:5 # 1
5.2150728627442995e-013 1:1 2:0 3:872 4:77 5:54 6:0.2 7:0.2 8:3152 9:21336 10:0 11:0 12:0 13:0 14:0 15:1.4 16:1.6 17:16 18:25.200001 19:1.6 20:395 21:1016512 # 1
-5.2150728627442995e-013 1:2 2:0 3:1141 4:139 5:86 6:0.40000001 7:0.60000002 8:14230 9:19909 10:2.8 11:3.2 12:5.1999998 13:11 14:0 15:4.8000002 16:5 17:33.799999 18:73.599998 19:232 20:95 21:5 # 1
5.2150728627442995e-013 1:7 2:1 3:776 4:70 5:47 6:0.40000001 7:0.40000001 8:13890 9:20383 10:1.2 11:1.2 12:1.2 13:0 14:0.2 15:7.21 16:13.03 17:42.689999 18:78.760002 19:1 20:244 21:1017748 # 1
-5.2150728627442995e-013 1:8 2:6 3:1152 4:138 5:96 6:0.40000001 7:0.40000001 8:16017 9:23243 10:2.4000001 11:2.79 12:2.79 13:0 14:1.2 15:3.5899999 16:3.79 17:35.330002 18:141.72 19:181 20:93 21:7 # 1
5.2150728627442995e-013 1:1 2:0 3:840 4:48 5:46 6:0.2 7:0.2 8:2048 9:13725 10:1 11:1.4 12:1.4 13:0 14:0 15:1 16:1 17:15.63 18:18.040001 19:1.2 20:317 21:1018052 # 1
-5.2150728627442995e-013 1:9 2:6 3:3453 4:920 5:839 6:0.2 7:0.2 8:10714 9:73390 10:12.38 11:18.76 12:30.34 13:22.16 14:7.5799999 15:9.9799995 16:12.77 17:15.57 18:76.849998 19:170 20:84 21:16 # 1
5.2150728627442995e-013 1:2 2:0 3:913 4:65 5:49 6:0.40000001 7:0.60000002 8:6778 9:13844 10:0.2 11:0.2 12:0.2 13:0 14:0.40000001 15:2.4000001 16:2.4000001 17:33.27 18:108.62 19:2 20:315 21:1018493 # 1
-5.2150728627442995e-013 1:36 2:48 3:1667 4:95 5:78 6:0.40000001 7:0.40000001 8:18151 9:24364 10:0 11:0 12:0 13:0 14:0 15:3.1900001 16:4.5900002 17:34.529999 18:39.919998 19:550 20:91 21:9 # 1
5.2150728627442995e-013 1:1 2:0 3:600 4:37 5:40 6:0.2 7:0.2 8:4767 9:19880 10:0.80000001 11:0.80000001 12:0.80000001 13:0 14:0 15:0.40000001 16:0.60000002 17:15.83 18:23.450001 19:1.5 20:289 21:1018485 # 1
-5.2150728627442995e-013 1:9 2:7 3:1530 4:247 5:135 6:0.40000001 7:0.40000001 8:14513 9:61905 10:13.8 11:19.200001 12:30.4 13:24.200001 14:10.4 15:14.8 16:18.4 17:26.799999 18:186.2 19:141 20:89 21:11 # 1
5.2150728627442995e-013 1:1 2:0 3:914 4:71 5:56 6:0.2 7:0.2 8:1297 9:13687 10:0 11:0 12:0 13:0 14:0 15:0 16:0 17:20.040001 18:29.66 19:3.3 20:1511 21:1026047 # 1
-5.2150728627442995e-013 1:3 2:0 3:1643 4:171 5:153 6:0.80000001 7:2.2 8:20529 9:26776 10:0 11:0 12:0 13:0 14:0.2 15:1.6 16:2.4000001 17:66.599998 18:105 19:537 20:91 21:9 # 1
5.2150728627442995e-013 1:3 2:2 3:996 4:88 5:68 6:0.2 7:0.2 8:1718 9:15568 10:0 11:0 12:0 13:0 14:0.40000001 15:0.2 16:0.2 17:17.23 18:33.669998 19:2.3 20:1551 21:1026145 # 1
-5.2150728627442995e-013 1:81 2:111 3:1175 4:112 5:75 6:0.2 7:0.2 8:18837 9:37417 10:4.4000001 11:6.5999999 12:6.5999999 13:0.80000001 14:1.8 15:1.2 16:1.2 17:18.4 18:82.800003 19:240 20:89 21:11 # 1
5.2150728627442995e-013 1:6 2:4 3:765 4:72 5:38 6:0.2 7:0.2 8:149433 9:24390 10:0 11:0 12:0 13:0 14:6 15:4.8000002 16:5 17:23.6 18:101.4 19:1.4 20:607 21:965299 # 1
-5.2150728627442995e-013 1:1 2:0 3:1785 4:88 5:84 6:0.2 7:0.2 8:23164 9:31231 10:4 11:5.1999998 12:5.1999998 13:0 14:0 15:0.2 16:0.2 17:15.8 18:31.4 19:154 20:96 21:4 # 1
5.2150728627442995e-013 1:0 2:0 3:603 4:44 5:41 6:0.2 7:0.2 8:1271 9:13421 10:0 11:0 12:0 13:0 14:0 15:1.6 16:1.6 17:22 18:48.599998 19:1 20:730 21:1034027 # 1
-5.2150728627442995e-013 1:2 2:0 3:1240 4:87 5:83 6:0.40000001 7:0.60000002 8:21455 9:50048 10:0.60000002 11:0.80000001 12:0.80000001 13:0 14:0 15:3.99 16:6.3899999 17:75.449997 18:104.99 19:679 20:93 21:7 # 1
5.2150728627442995e-013 1:17 2:16 3:788 4:81 5:69 6:0.40000001 7:0.2 8:10555 9:42588 10:0 11:0 12:0 13:0 14:0 15:3.2 16:3.2 17:20 18:98.800003 19:1.6 20:523 21:967448 # 1
-5.2150728627442995e-013 1:6 2:1 3:1381 4:158 5:119 6:1.4 7:2 8:27168 9:22368 10:0 11:0 12:0 13:0 14:0.2 15:4.5999999 16:6.8000002 17:103.4 18:154 19:514 20:92 21:8 # 1
5.2150728627442995e-013 1:5 2:5 3:691 4:72 5:53 6:0.2 7:0.2 8:5917 9:23539 10:0 11:0 12:0 13:0 14:0 15:17.559999 16:17.559999 17:15.77 18:65.870003 19:2 20:575 21:967896 # 1
-5.2150728627442995e-013 1:3 2:0 3:1093 4:189 5:128 6:0.40000001 7:0.60000002 8:17112 9:78185 10:13.03 11:21.040001 12:28.059999 13:15.23 14:6.0100002 15:31.059999 16:34.869999 17:37.470001 18:105.61 19:196 20:90 21:10 # 1
5.2150728627442995e-013 1:3 2:0 3:1624 4:113 5:108 6:0.60000002 7:0.80000001 8:9744 9:23072 10:0 11:0 12:0 13:0 14:0 15:0 16:0 17:52.599998 18:65.599998 19:2 20:1172 21:971102 # 1
-5.2150728627442995e-013 1:7 2:6 3:1844 4:103 5:73 6:0.2 7:0.2 8:29186 9:26099 10:3.01 11:4.0100002 12:3.6099999 13:0 14:0.60000002 15:2.6099999 16:2.6099999 17:17.639999 18:31.459999 19:155 20:95 21:5 # 1
5.2150728627442995e-013 1:11 2:8 3:1392 4:68 5:56 6:0.60000002 7:0.60000002 8:6614 9:19602 10:0 11:0 12:0 13:0 14:0 15:0.2 16:0.2 17:46.889999 18:49.900002 19:2.2 20:1165 21:972803 # 1
-5.2150728627442995e-013 1:6 2:2 3:1322 4:51 5:51 6:0.40000001 7:0.40000001 8:27582 9:35275 10:2.99 11:3.99 12:3.99 13:0 14:0 15:2.4000001 16:2.99 17:35.330002 18:43.91 19:334 20:95 21:5 # 1
5.2150728627442995e-013 1:3 2:1 3:856 4:64 5:52 6:0.60000002 7:0.60000002 8:11415 9:23700 10:0 11:0 12:0 13:0 14:0.2 15:1.2 16:1.2 17:41.52 18:46.91 19:2.5 20:1172 21:974162 # 1
-5.2150728627442995e-013 1:12 2:5 3:1176 4:88 5:72 6:1.4 7:1.8 8:33693 9:24259 10:2 11:2 12:2 13:0 14:0 15:6 16:9.3999996 17:100.8 18:142.60001 19:262 20:94 21:6 # 1
5.2150728627442995e-013 1:7 2:5 3:892 4:84 5:53 6:0.60000002 7:0.60000002 8:5332 9:16069 10:0 11:0 12:0 13:0 14:0 15:1 16:1 17:36.869999 18:83.370003 19:3 20:951 21:977579 # 1
-5.2150728627442995e-013 1:7 2:2 3:1611 4:67 5:81 6:0.60000002 7:0.60000002 8:31076 9:37271 10:0 11:0 12:0 13:0 14:0 15:0.2 16:0.2 17:47.599998 18:56.799999 19:522 20:95 21:5 # 1
5.2150728627442995e-013 1:7 2:6 3:593 4:57 5:47 6:0.2 7:0.2 8:3953 9:16665 10:0 11:0 12:0 13:0 14:0 15:3.6099999 16:3.8099999 17:15.83 18:38.880001 19:2.4000001 20:886 21:978309 # 1
-5.2150728627442995e-013 1:22 2:31 3:1564 4:89 5:75 6:0.40000001 7:0.40000001 8:31239 9:39031 10:0.80000001 11:0.80000001 12:0.80000001 13:0 14:0.40000001 15:2.2 16:2.5999999 17:40.599998 18:36.400002 19:367 20:95 21:5 # 1
5.2150728627442995e-013 1:29 2:12 3:862 4:135 5:91 6:0.40000001 7:0.40000001 8:131306 9:52089 10:0 11:0 12:0 13:0 14:0 15:1.4 16:1.4 17:40.200001 18:47.799999 19:1 20:693 21:990952 # 1
-5.2150728627442995e-013 1:53 2:49 3:2724 4:216 5:152 6:0.60000002 7:1 8:31155 9:43152 10:2.5999999 11:3.5999999 12:3.4000001 13:0 14:1.8 15:4.1999998 16:12.4 17:50.400002 18:97.599998 19:590 20:90 21:10 # 1
5.2150728627442995e-013 1:2 2:1 3:710 4:40 5:41 6:0.2 7:0.2 8:2913 9:18830 10:0 11:0 12:0 13:0 14:0 15:0.40000001 16:0.40000001 17:24.799999 18:18.799999 19:1 20:684 21:1039054 # 1
-5.2150728627442995e-013 1:3 2:0 3:943 4:119 5:116 6:0.80000001 7:0.60000002 8:34217 9:32924 10:0 11:0 12:0 13:0 14:0 15:1.6 16:1.6 17:58.400002 18:130 19:531 20:93 21:7 # 1
5.2150728627442995e-013 1:2 2:1 3:1804 4:90 5:94 6:0.40000001 7:1.8 8:31422 9:86746 10:0.80000001 11:0.80000001 12:0.80000001 13:0 14:0 15:1.8 16:1.8 17:34 18:46.799999 19:4.5999999 20:2120 21:988291 # 1
-5.2150728627442995e-013 1:31 2:41 3:1394 4:163 5:124 6:0.40000001 7:0.40000001 8:26747 9:64771 10:14.77 11:20.559999 12:28.74 13:19.16 14:10.98 15:11.38 16:14.57 17:37.330002 18:78.839996 19:136 20:89 21:11 # 1
5.2150728627442995e-013 1:2 2:1 3:699 4:35 5:33 6:0.2 7:0.2 8:1454 9:13449 10:0 11:0 12:0 13:0 14:0 15:0.40000001 16:0.40000001 17:27.200001 18:19 19:1.7 20:677 21:1038936 # 1
-5.2150728627442995e-013 1:12 2:9 3:1767 4:52 5:45 6:0.60000002 7:0.60000002 8:37701 9:29679 10:1.6 11:2.8 12:2.8 13:0 14:0 15:2 16:2 17:31.799999 18:49.200001 19:336 20:96 21:4 # 1
5.2150728627442995e-013 1:39 2:57 3:936 4:51 5:50 6:0.40000001 7:0.40000001 8:3353 9:23502 10:2.5999999 11:2.5999999 12:2.5999999 13:0 14:0.40000001 15:1 16:1 17:31.6 18:65.599998 19:1.7 20:182 21:989358 # 1
-5.2150728627442995e-013 1:12 2:7 3:1279 4:105 5:65 6:0.80000001 7:2.5899999 8:38119 9:32996 10:0 11:0 12:0 13:0 14:0.2 15:3.79 16:3.79 17:77.639999 18:102.99 19:545 20:91 21:9 # 1
5.2150728627442995e-013 1:7 2:7 3:898 4:62 5:64 6:0.2 7:0.2 8:23215 9:16810 10:2.4000001 11:2.6099999 12:2.6099999 13:0 14:0 15:4.21 16:4.21 17:16.23 18:42.080002 19:2 20:186 21:991279 # 1
-5.2150728627442995e-013 1:0 2:0 3:1021 4:57 5:48 6:0.2 7:0.2 8:37328 9:46619 10:1.6 11:1.6 12:1.6 13:0 14:0 15:2 16:2 17:9.8199997 18:24.049999 19:216 20:98 21:2 # 1
5.2150728627442995e-013 1:0 2:0 3:876 4:81 5:61 6:0.2 7:0.2 8:2073 9:23892 10:0 11:0 12:0 13:0 14:0 15:0.40000001 16:0.40000001 17:15.77 18:35.330002 19:2.3 20:445 21:990339 # 1
-5.2150728627442995e-013 1:13 2:2 3:1510 4:151 5:109 6:2.3900001 7:3.5899999 8:45093 9:27988 10:4.1799998 11:7.9699998 12:29.879999 13:48.009998 14:1 15:59.360001 16:62.950001 17:134.25999 18:326.48999 19:178 20:87 21:13 # 1
5.2150728627442995e-013 1:2 2:1 3:785 4:48 5:44 6:0.40000001 7:1.4 8:39338 9:13540 10:2.5999999 11:5.1999998 12:5.1999998 13:0 14:0.60000002 15:0 16:0 17:53.799999 18:82 19:2 20:279 21:992654 # 1
-5.2150728627442995e-013 1:23 2:18 3:1057 4:125 5:147 6:2 7:0.80000001 8:52933 9:22688 10:0 11:0 12:0 13:0 14:0.2 15:6.8000002 16:6.8000002 17:277.20001 18:264.60001 19:621 20:90 21:10 # 1
5.2150728627442995e-013 1:1 2:0 3:702 4:32 5:37 6:0.80000001 7:2.2 8:3024 9:22659 10:0 11:0 12:0 13:0 14:0 15:0.40000001 16:0.40000001 17:53.799999 18:100.6 19:1 20:443 21:992320 # 1
-5.2150728627442995e-013 1:7 2:5 3:1243 4:144 5:71 6:0.60000002 7:0.40000001 8:55702 9:34563 10:0 11:0 12:0 13:0 14:0 15:0.40000001 16:0.60000002 17:32.459999 18:42.689999 19:422 20:96 21:4 # 1
5.2150728627442995e-013 1:3 2:2 3:1126 4:136 5:106 6:0.2 7:0.2 8:11318 9:27334 10:0 11:0 12:0 13:0 14:0 15:2.2 16:2.2 17:17.23 18:61.720001 19:3 20:422 21:993879 # 1
-5.2150728627442995e-013 1:2 2:0 3:2085 4:122 5:90 6:0.40000001 7:0.60000002 8:56988 9:35006 10:0 11:0 12:0 13:0 14:0 15:4.4000001 16:6.8000002 17:35.400002 18:45.400002 19:395 20:95 21:5 # 1
5.2150728627442995e-013 1:0 2:0 3:957 4:82 5:62 6:0.40000001 7:1.8 8:17922 9:13341 10:0.40000001 11:0.40000001 12:0.40000001 13:0 14:0 15:0.2 16:0.2 17:19.84 18:25.450001 19:1.5 20:199 21:994078 # 1
-5.2150728627442995e-013 1:9 2:5 3:2164 4:82 5:169 6:0.60000002 7:2 8:60189 9:23390 10:0 11:0 12:0 13:0 14:0.40000001 15:15.6 16:15.6 17:51.400002 18:101 19:403 20:91 21:9 # 1
5.2150728627442995e-013 1:0 2:0 3:784 4:61 5:45 6:0.40000001 7:0.60000002 8:14287 9:15889 10:0 11:0 12:0 13:0 14:0 15:1.4 16:2.4000001 17:33.200001 18:41 19:1 20:1543 21:998760 # 1
-5.2150728627442995e-013 1:2 2:1 3:4298 4:199 5:124 6:0.2 7:0.2 8:61506 9:23699 10:1.8 11:1.8 12:1.8 13:0 14:0.80000001 15:1.4 16:1.8 17:18.360001 18:44.91 19:161 20:91 21:9 # 1
5.2150728627442995e-013 1:1 2:1 3:1571 4:109 5:85 6:0.2 7:0.2 8:7696 9:57951 10:0.60000002 11:0.60000002 12:1.2 13:0.60000002 14:0 15:1.2 16:1.4 17:16 18:38.599998 19:1.2 20:144 21:1002419 # 1
-5.2150728627442995e-013 1:10 2:7 3:2489 4:174 5:104 6:0.2 7:0.2 8:62847 9:19508 10:3.2 11:5.1999998 12:14.4 13:40.200001 14:0.80000001 15:3.5999999 16:3.8 17:16.4 18:98.599998 19:167 20:91 21:8 # 1
5.2150728627442995e-013 1:6 2:5 3:1064 4:132 5:90 6:0.2 7:0.2 8:183030 9:27829 10:0 11:0 12:0 13:0 14:0 15:1.2 16:1.2 17:17.23 18:44.09 19:3.2 20:1490 21:969653 # 1
-5.2150728627442995e-013 1:12 2:5 3:745 4:82 5:83 6:1.2 7:0.80000001 8:56291 9:47669 10:0 11:0 12:0 13:0 14:0 15:6.8000002 16:13.4 17:80 18:171 19:1556 20:92 21:8 # 1
5.2150728627442995e-013 1:6 2:5 3:1075 4:150 5:77 6:0.60000002 7:0.60000002 8:186329 9:20552 10:1 11:1 12:1 13:0 14:2.8 15:1 16:3.5999999 17:46.200001 18:140.8 19:3 20:200 21:971387 # 1
-5.2150728627442995e-013 1:7 2:5 3:1021 4:141 5:101 6:0.2 7:0.2 8:69214 9:35381 10:2.2 11:2.2 12:2.5999999 13:0.80000001 14:0.40000001 15:1.6 16:2 17:29.6 18:58.400002 19:291 20:94 21:6 # 1
5.2150728627442995e-013 1:1 2:0 3:1228 4:42 5:38 6:0.2 7:0.2 8:7176 9:15793 10:0 11:0 12:0 13:0 14:0 15:0 16:0 17:25.4 18:19.4 19:2 20:2083 21:1003210 # 1
-5.2150728627442995e-013 1:10 2:6 3:767 4:86 5:90 6:1 7:0.80000001 8:66939 9:55617 10:0 11:0 12:0 13:0 14:0.2 15:1 16:1 17:63.200001 18:138.2 19:538 20:94 21:6 # 1
5.2150728627442995e-013 1:0 2:0 3:1060 4:113 5:53 6:0.2 7:0.2 8:180834 9:19367 10:3.1900001 11:3.5899999 12:3.5899999 13:0 14:3.5899999 15:1 16:1 17:17.370001 18:41.919998 19:1 20:224 21:1011219 # 1
-5.2150728627442995e-013 1:13 2:6 3:1881 4:141 5:134 6:1.4 7:2.2 8:72256 9:42530 10:5.4099998 11:6.8099999 12:6.8099999 13:0 14:0.80000001 15:25.049999 16:33.07 17:119.24 18:253.31 19:292 20:86 21:14 # 1
5.2150728627442995e-013 1:2 2:1 3:1413 4:47 5:51 6:0.40000001 7:0.60000002 8:23046 9:23823 10:0 11:0 12:0 13:0 14:0 15:0 16:0 17:39.32 18:65.470001 19:1.2 20:1181 21:1005154 # 1
-5.2150728627442995e-013 1:7 2:2 3:2404 4:211 5:153 6:1.4 7:2.6099999 8:76530 9:43705 10:0.40000001 11:0.40000001 12:0.40000001 13:0 14:0 15:5.0100002 16:7.4099998 17:76.949997 18:129.86 19:298 20:89 21:11 # 1
5.2150728627442995e-013 1:10 2:9 3:1075 4:80 5:66 6:0.2 7:0.2 8:4730 9:17851 10:0 11:0 12:0 13:0 14:0 15:0.80000001 16:1 17:16 18:30.200001 19:2.5999999 20:1482 21:967736 # 1
-5.2150728627442995e-013 1:31 2:5 3:2177 4:109 5:92 6:3 7:2.2 8:81775 9:27837 10:2 11:2.2 12:2.2 13:0 14:0.2 15:2 16:3.2 17:131.60001 18:236 19:437 20:90 21:10 # 1
5.2150728627442995e-013 1:79 2:34 3:646 4:142 5:125 6:0.2 7:0.2 8:64251 9:78486 10:0 11:0 12:0 13:0 14:0 15:1.2 16:1.2 17:16.4 18:27.6 19:2 20:627 21:1008558 # 1
-5.2150728627442995e-013 1:9 2:7 3:1635 4:226 5:150 6:0.40000001 7:0.40000001 8:79725 9:39372 10:7.5799999 11:9.7799997 12:43.310001 13:60.48 14:1.2 15:18.559999 16:19.559999 17:39.119999 18:268.06 19:241 20:88 21:12 # 1
5.2150728627442995e-013 1:2 2:2 3:1424 4:133 5:101 6:0.2 7:0.2 8:210413 9:16994 10:0 11:0 12:0 13:0 14:0 15:2 16:3.2 17:16.200001 18:28.799999 19:2 20:342 21:979099 # 1
-5.2150728627442995e-013 1:48 2:65 3:1199 4:101 5:69 6:0.60000002 7:0.60000002 8:86306 9:24924 10:0 11:0 12:0 13:0 14:0 15:12.6 16:20.200001 17:40.799999 18:110 19:616 20:90 21:10 # 1
5.2150728627442995e-013 1:2 2:0 3:900 4:49 5:35 6:0.40000001 7:1.8 8:193177 9:13610 10:2.4000001 11:3.2 12:5.1999998 13:8 14:1.6 15:1.2 16:1.2 17:32.799999 18:48.599998 19:1 20:173 21:1014144 # 1
-5.2150728627442995e-013 1:25 2:13 3:1509 4:178 5:114 6:3.4000001 7:4.5999999 8:89871 9:23958 10:0 11:0 12:0 13:0 14:0.40000001 15:14.2 16:19.6 17:148.8 18:290.20001 19:446 20:87 21:13 # 1
5.2150728627442995e-013 1:1 2:0 3:813 4:89 5:88 6:0.60000002 7:0.60000002 8:5816 9:22412 10:0.2 11:0.40000001 12:0.40000001 13:0 14:0 15:2 16:2.2 17:59.599998 18:89.400002 19:2 20:178 21:973330 # 1
-5.2150728627442995e-013 1:5 2:4 3:519 4:66 5:71 6:0.2 7:0.2 8:92342 9:18279 10:1.6 11:1.6 12:1.6 13:0 14:1 15:0.60000002 16:0.60000002 17:15.6 18:24.6 19:147 20:97 21:3 # 1
5.2150728627442995e-013 1:9 2:7 3:1193 4:48 5:39 6:0.2 7:0.2 8:5602 9:23886 10:0 11:0 12:0 13:0 14:0 15:0 16:0 17:15.77 18:31.74 19:2.8 20:902 21:973503 # 1
-5.2150728627442995e-013 1:9 2:1 3:877 4:79 5:86 6:1.8 7:6 8:77186 9:66921 10:0.60000002 11:0.60000002 12:0.60000002 13:0 14:0.60000002 15:0.40000001 16:0.40000001 17:88.800003 18:161.2 19:210 20:94 21:6 # 1
5.2150728627442995e-013 1:3 2:2 3:1668 4:107 5:93 6:0.40000001 7:0.40000001 8:51510 9:48700 10:0 11:0 12:0 13:0 14:0 15:4 16:7.8000002 17:78.599998 18:113.4 19:1.5 20:451 21:976706 # 1
-5.2150728627442995e-013 1:11 2:5 3:1917 4:72 5:41 6:0.80000001 7:2.2 8:90772 9:26338 10:0 11:0 12:0 13:0 14:0 15:4.6100001 16:6.6100001 17:31.66 18:60.32 19:1041 20:92 21:8 # 1
5.2150728627442995e-013 1:11 2:10 3:568 4:56 5:56 6:0.60000002 7:1.2 8:11724 9:22513 10:0 11:0 12:0 13:0 14:0 15:0.80000001 16:3.4000001 17:57 18:60.200001 19:2 20:660 21:1008230 # 1
-5.2150728627442995e-013 1:49 2:71 3:3273 4:225 5:180 6:0.60000002 7:0.40000001 8:83246 9:53705 10:5.3899999 11:7.1900001 12:7.1900001 13:0 14:2.79 15:3.99 16:4.5900002 17:59.880001 18:74.050003 19:227 20:82 21:18 # 1
5.2150728627442995e-013 1:2 2:1 3:1252 4:138 5:99 6:0.2 7:0.2 8:4361 9:21604 10:0 11:0 12:0 13:0 14:0 15:0.40000001 16:0.40000001 17:22.360001 18:21.360001 19:1.3 20:527 21:976144 # 1
-5.2150728627442995e-013 1:5 2:4 3:825 4:165 5:129 6:0.2 7:0.2 8:83366 9:53619 10:0 11:0 12:0 13:0 14:0 15:2.5999999 16:3 17:19.6 18:56.200001 19:632 20:93 21:7 # 1
5.2150728627442995e-013 1:10 2:9 3:579 4:87 5:71 6:0.60000002 7:2 8:22680 9:20401 10:0 11:0 12:0 13:0 14:0 15:0.80000001 16:0.80000001 17:53.200001 18:65 19:2.5999999 20:843 21:1008656 # 1
-5.2150728627442995e-013 1:1 2:0 3:670 4:70 5:35 6:0.2 7:0.2 8:97203 9:17815 10:0.60000002 11:0.80000001 12:0.80000001 13:0 14:0.2 15:1.6 16:1.6 17:16.6 18:27.799999 19:131 20:96 21:4 # 1
5.2150728627442995e-013 1:52 2:70 3:1699 4:125 5:106 6:0.2 7:0.2 8:6046 9:26711 10:0 11:0 12:0 13:0 14:0 15:0 16:0 17:19.6 18:33.599998 19:1.8 20:536 21:977066 # 1
-5.2150728627442995e-013 1:12 2:10 3:2643 4:131 5:161 6:0.40000001 7:1.8 8:86268 9:58754 10:0 11:0 12:0 13:0 14:0 15:31.6 16:31.6 17:36.400002 18:138.2 19:473 20:90 21:10 # 1
5.2150728627442995e-013 1:0 2:0 3:764 4:68 5:57 6:0.2 7:0.2 8:48116 9:38972 10:1.2 11:1.8 12:1.8 13:0 14:1.2 15:0.60000002 16:0.60000002 17:20 18:46.400002 19:1.5 20:416 21:949702 # 1
-5.2150728627442995e-013 1:11 2:8 3:1153 4:74 5:49 6:0.2 7:0.2 8:94959 9:31350 10:2.2 11:2.2 12:2.2 13:0 14:0.40000001 15:3.1900001 16:3.79 17:30.940001 18:74.650002 19:330 20:95 21:5 # 1
5.2150728627442995e-013 1:1 2:1 3:973 4:49 5:39 6:0.2 7:0.2 8:5749 9:25238 10:0 11:0 12:0 13:0 14:0.40000001 15:0.40000001 16:0.40000001 17:13.6 18:28.4 19:3 20:389 21:1008496 # 1
-5.2150728627442995e-013 1:7 2:2 3:1251 4:129 5:91 6:0.60000002 7:0.80000001 8:100872 9:17439 10:1 11:1 12:8.8199997 13:12.22 14:18.84 15:1.6 16:1.8 17:46.689999 18:86.370003 19:134 20:93 21:7 # 1
5.2150728627442995e-013 1:12 2:11 3:1725 4:128 5:96 6:0.40000001 7:0.40000001 8:9587 9:32274 10:0 11:0 12:0 13:0 14:0.2 15:2.2 16:2.4000001 17:65.199997 18:47.400002 19:2 20:471 21:979923 # 1
-5.2150728627442995e-013 1:33 2:4 3:1723 4:97 5:63 6:8.1999998 7:8 8:93520 9:46645 10:7.1999998 11:11.8 12:36 13:56 14:0.40000001 15:6.4000001 16:6.5999999 17:287.60001 18:591.79999 19:133 20:82 21:18 # 1
5.2150728627442995e-013 1:9 2:8 3:2064 4:61 5:69 6:0.2 7:0.2 8:2085 9:14400 10:0 11:0 12:0 13:0 14:0 15:0.40000001 16:0.40000001 17:21.4 18:26.799999 19:2 20:1706 21:1009560 # 1
-5.2150728627442995e-013 1:15 2:5 3:7183 4:845 5:609 6:9.9799995 7:6.9899998 8:314269 9:47208 10:8.7799997 11:75.449997 12:107.39 13:212.17999 14:1.6 15:10.98 16:14.37 17:533.13 18:874.25 19:8.6000004 20:241 21:1436899 # 1
5.2150728627442995e-013 1:0 2:0 3:1108 4:87 5:48 6:0.60000002 7:0.60000002 8:199489 9:36309 10:0 11:0 12:0 13:0 14:0 15:1.6 16:1.6 17:72 18:100.6 19:1.4 20:462 21:989240 # 1
-5.2150728627442995e-013 1:77 2:90 3:4219 4:652 5:595 6:1.39 7:1.39 8:96821 9:46895 10:3.1700001 11:16.469999 12:36.310001 13:82.940002 14:0.79000002 15:11.51 16:13.69 17:102.78 18:224.60001 19:134 20:85 21:15 # 1
5.2150728627442995e-013 1:2 2:0 3:817 4:43 5:73 6:0.40000001 7:0.80000001 8:102203 9:26343 10:0 11:0 12:0 13:0 14:0.2 15:2 16:2.2 17:34.400002 18:47.599998 19:1.3 20:494 21:1014829 # 1
-5.2150728627442995e-013 1:4 2:1 3:1065 4:229 5:68 6:0.60000002 7:0.60000002 8:105847 9:17529 10:1.6 11:1.8 12:1.6 13:0 14:0.60000002 15:4.4000001 16:8 17:49.400002 18:103.4 19:305 20:91 21:9 # 1
5.2150728627442995e-013 1:31 2:47 3:761 4:57 5:45 6:0.2 7:0.2 8:1304 9:15389 10:0 11:0 12:0 13:0 14:0 15:0 16:0 17:21.639999 18:19.24 19:5.1999998 20:397 21:1010637 # 1
-5.2150728627442995e-013 1:7 2:4 3:813 4:125 5:126 6:0.40000001 7:0.40000001 8:87675 9:81946 10:21.959999 11:32.139999 12:100.8 13:142.91 14:11.98 15:24.75 16:50.099998 17:33.330002 18:138.12 19:127 20:89 21:11 # 1
5.2150728627442995e-013 1:2 2:0 3:806 4:52 5:43 6:0.40000001 7:0.60000002 8:11892 9:22951 10:2.2 11:4.5900002 12:9.7799997 13:29.940001 14:0 15:1 16:1 17:34.73 18:48.299999 19:1 20:169 21:1012145 # 1
-5.2150728627442995e-013 1:13 2:10 3:2259 4:214 5:181 6:0.60000002 7:3 8:99277 9:40755 10:0 11:0 12:0 13:0 14:0 15:4.5999999 16:8.6000004 17:27.200001 18:52 19:547 20:90 21:10 # 1
5.2150728627442995e-013 1:0 2:0 3:830 4:41 5:48 6:0.2 7:0.2 8:1605 9:40024 10:4.5999999 11:5.8000002 12:5.8000002 13:0 14:0 15:4.4000001 16:5.4000001 17:15 18:58.200001 19:2 20:195 21:1013584 # 1
-5.2150728627442995e-013 1:51 2:63 3:7093 4:633 5:357 6:8.1800003 7:11.78 8:287553 9:371722 10:8.5799999 11:32.73 12:74.849998 13:153.89 14:1 15:48.900002 16:49.5 17:551.70001 18:931.94 19:6.8000002 20:221 21:1371542 # 1
5.2150728627442995e-013 1:10 2:9 3:1459 4:145 5:74 6:0.2 7:0.2 8:376077 9:21897 10:0 11:0 12:0 13:0 14:0 15:0.40000001 16:3 17:19.6 18:28.799999 19:3.2 20:955 21:975478 # 1
-5.2150728627442995e-013 1:10 2:5 3:2074 4:339 5:203 6:0.40000001 7:1 8:107949 9:28309 10:1.4 11:1.8 12:2.5999999 13:1.8 14:1.2 15:9.8000002 16:10 17:55 18:193.8 19:226 20:88 21:12 # 1
5.2150728627442995e-013 1:2 2:0 3:801 4:62 5:62 6:0.40000001 7:0.40000001 8:29439 9:38059 10:0 11:0 12:0 13:0 14:0 15:1.4 16:1.6 17:34.130001 18:50.099998 19:1 20:792 21:1014876 # 1
-5.2150728627442995e-013 1:45 2:4 3:2415 4:116 5:65 6:11.4 7:11.8 8:111258 9:24508 10:0 11:0 12:0 13:0 14:0.2 15:0.80000001 16:0.80000001 17:396.79999 18:768.40002 19:791 20:77 21:23 # 1
5.2150728627442995e-013 1:5 2:4 3:837 4:63 5:51 6:0.60000002 7:0.80000001 8:6255 9:23670 10:0 11:0 12:0 13:0 14:0 15:0.60000002 16:0.60000002 17:50.200001 18:72.599998 19:2.4000001 20:3052 21:1013758 # 1
-5.2150728627442995e-013 1:17 2:2 3:1109 4:117 5:99 6:2 7:2.5999999 8:104225 9:45581 10:0.40000001 11:0.80000001 12:0.80000001 13:0 14:0.40000001 15:0 16:0 17:111 18:239.2 19:546 20:90 21:10 # 1
5.2150728627442995e-013 1:2 2:1 3:986 4:73 5:54 6:0.2 7:0.2 8:5562 9:23881 10:0.60000002 11:0.60000002 12:0.60000002 13:0 14:0.40000001 15:2.5999999 16:2.5999999 17:12.8 18:43.799999 19:2.3 20:217 21:1013784 # 1
-5.2150728627442995e-013 1:13 2:9 3:1076 4:119 5:95 6:1 7:0.60000002 8:104474 9:56550 10:11.8 11:15.4 12:15.4 13:0 14:10.2 15:9 16:12.4 17:81.800003 18:139 19:317 20:89 21:11 # 1
5.2150728627442995e-013 1:8 2:6 3:1309 4:136 5:112 6:0.2 7:0.2 8:11073 9:15686 10:1 11:1 12:1 13:0 14:0.80000001 15:5.5999999 16:5.8000002 17:17.4 18:150 19:1 20:318 21:961362 # 1
-5.2150728627442995e-013 1:7 2:4 3:1614 4:112 5:77 6:0.40000001 7:0.40000001 8:103997 9:59856 10:16.200001 11:22 12:41.599998 13:47.200001 14:13.2 15:22.6 16:43.400002 17:42.200001 18:181.39999 19:212 20:89 21:11 # 1
5.2150728627442995e-013 1:7 2:6 3:819 4:91 5:46 6:0.2 7:0.2 8:194325 9:24819 10:1 11:1.4 12:1.4 13:0 14:1.6 15:15.6 16:15.6 17:20.6 18:206.60001 19:2 20:205 21:969859 # 1
-5.2150728627442995e-013 1:8 2:1 3:885 4:139 5:63 6:0.40000001 7:0.40000001 8:118533 9:21572 10:0.2 11:0.2 12:0.2 13:0 14:8.6000004 15:29.4 16:38.400002 17:29.799999 18:136.60001 19:450 20:92 21:8 # 1
5.2150728627442995e-013 1:6 2:6 3:1143 4:100 5:67 6:0.40000001 7:1 8:92840 9:29857 10:0 11:0 12:0 13:0 14:0 15:0.80000001 16:0.80000001 17:45.799999 18:67.599998 19:1 20:676 21:991750 # 1
-5.2150728627442995e-013 1:6 2:5 3:1642 4:97 5:93 6:0.2 7:0.2 8:119009 9:24558 10:0 11:0 12:0 13:0 14:0 15:2.4000001 16:3.21 17:21.040001 18:42.080002 19:404 20:93 21:7 # 1
5.2150728627442995e-013 1:18 2:8 3:901 4:78 5:58 6:0.60000002 7:0.60000002 8:128052 9:21829 10:0 11:0 12:0 13:0 14:0 15:2.79 16:2.79 17:43.310001 18:115.37 19:1.6 20:631 21:968121 # 1
-5.2150728627442995e-013 1:5 2:2 3:811 4:81 5:81 6:0.60000002 7:0.60000002 8:95158 9:85829 10:7.21 11:10.82 12:10.82 13:0 14:6.0100002 15:24.25 16:28.26 17:57.110001 18:213.03 19:310 20:91 21:9 # 1
5.2150728627442995e-013 1:1 2:1 3:876 4:83 5:83 6:0.2 7:0.2 8:15661 9:15976 10:0.60000002 11:0.80000001 12:0.80000001 13:0 14:0.40000001 15:0.80000001 16:0.80000001 17:15.2 18:24.6 19:1 20:242 21:1014240 # 1
-5.2150728627442995e-013 1:45 2:60 3:1219 4:67 5:42 6:0.60000002 7:1.2 8:122445 9:17921 10:4.1999998 11:5.1999998 12:10.6 13:23.200001 14:0 15:11.2 16:11.4 17:49 18:99.400002 19:145 20:93 21:7 # 1
5.2150728627442995e-013 1:57 2:56 3:958 4:130 5:86 6:0.60000002 7:0.40000001 8:56797 9:50759 10:4.1999998 11:16.6 12:31.6 13:59.200001 14:1.2 15:1.4 16:3.2 17:41.200001 18:79.199997 19:2.8 20:175 21:991931 # 1
-5.2150728627442995e-013 1:14 2:5 3:1238 4:77 5:61 6:0.2 7:0.2 8:107535 9:56627 10:0 11:0 12:0 13:0 14:0.40000001 15:9.0200005 16:14.03 17:16.23 18:23.450001 19:370 20:95 21:5 # 1
5.2150728627442995e-013 1:5 2:4 3:1451 4:110 5:60 6:0.2 7:0 8:18364 9:26638 10:0 11:0 12:0 13:0 14:0 15:0.2 16:0.2 17:7.5799999 18:6.9899998 19:1 20:713 21:990247 # 1
-5.2150728627442995e-013 1:1 2:0 3:2061 4:220 5:184 6:0.2 7:0.2 8:118267 9:40022 10:1 11:1 12:1 13:0 14:0.40000001 15:2 16:2.4000001 17:15.6 18:60.400002 19:175 20:94 21:6 # 1
5.2150728627442995e-013 1:11 2:3 3:813 4:33 5:44 6:0.60000002 7:0.60000002 8:6232 9:14433 10:0 11:0 12:0 13:0 14:0 15:0 16:0 17:52.09 18:62.029999 19:1.5 20:730 21:989538 # 1
-5.2150728627442995e-013 1:74 2:0 3:6835 4:377 5:188 6:20.120001 7:59.560001 8:274532 9:34446 10:3.5899999 11:28.879999 12:58.959999 13:112.55 14:2.1900001 15:14.74 16:21.709999 17:801.39001 18:1278.88 19:1.5 20:168 21:1100449 # 1
5.2150728627442995e-013 1:0 2:0 3:1380 4:64 5:47 6:0.2 7:0.2 8:52455 9:15022 10:0 11:0 12:0 13:0 14:0 15:0.40000001 16:0.40000001 17:16.4 18:25 19:2.4000001 20:423 21:991782 # 1
-5.2150728627442995e-013 1:6 2:4 3:1051 4:214 5:116 6:0.2 7:0.2 8:100352 9:87270 10:17.370001 11:27.540001 12:27.540001 13:0 14:6.9899998 15:20.76 16:23.15 17:15.77 18:103.19 19:283 20:90 21:10 # 1
5.2150728627442995e-013 1:5 2:0 3:850 4:74 5:46 6:0.40000001 7:1.8 8:141756 9:16669 10:2.5999999 11:4.1999998 12:8.8000002 13:27.4 14:0.60000002 15:9.8000002 16:12.8 17:36.400002 18:77 19:1 20:139 21:972893 # 1
-5.2150728627442995e-013 1:7 2:1 3:1280 4:91 5:50 6:1.8 7:3 8:131362 9:16863 10:0 11:0 12:0 13:0 14:0 15:1.4 16:1.6 17:82 18:128.60001 19:916 20:93 21:7 # 1
5.2150728627442995e-013 1:45 2:64 3:712 4:47 5:46 6:0.40000001 7:0.40000001 8:42938 9:14112 10:0.40000001 11:0.40000001 12:0.40000001 13:0 14:0.2 15:2.2 16:2.8 17:39 18:57.599998 19:2.2 20:488 21:992288 # 1
-5.2150728627442995e-013 1:12 2:1 3:2466 4:193 5:189 6:3.1900001 7:2 8:105786 9:83337 10:0 11:0 12:0 13:0 14:0 15:2.4000001 16:3.1900001 17:173.85001 18:243.11 19:440 20:87 21:13 # 1
5.2150728627442995e-013 1:13 2:9 3:709 4:78 5:99 6:0.80000001 7:0.60000002 8:47868 9:37038 10:0 11:0 12:0 13:0 14:0 15:7.4000001 16:8.3999996 17:56 18:104.2 19:1 20:503 21:969976 # 1
-5.2150728627442995e-013 1:1 2:0 3:3083 4:219 5:152 6:0.2 7:0.2 8:107127 9:81287 10:6 11:14.6 12:26.799999 13:43.599998 14:0.40000001 15:2.4000001 16:2.5999999 17:22.6 18:84.199997 19:147 20:83 21:16 # 1
5.2150728627442995e-013 1:2 2:1 3:818 4:54 5:50 6:0.2 7:0.2 8:1114 9:13939 10:0.60000002 11:0.60000002 12:0.60000002 13:0 14:0.2 15:1.6 16:1.6 17:15.2 18:22.6 19:1 20:133 21:1014048 # 1
-5.2150728627442995e-013 1:44 2:1 3:6493 4:591 5:460 6:14.4 7:19.200001 8:391816 9:97027 10:4 11:10 12:20.200001 13:33.400002 14:2.2 15:6 16:7 17:751.40002 18:1114.8 19:4.8000002 20:182 21:1096938 # 1
5.2150728627442995e-013 1:1 2:0 3:684 4:59 5:62 6:0.2 7:0.2 8:2692 9:20480 10:0 11:0 12:0 13:0 14:0 15:0.40000001 16:0.40000001 17:21.16 18:28.34 19:1.8 20:786 21:1014446 # 1
5.2150728627442995e-013 1:2 2:0 3:1059 4:131 5:110 6:0.60000002 7:0.60000002 8:18821 9:30496 10:0 11:0 12:0 13:0 14:0 15:1 16:1 17:52.200001 18:81 19:1 20:806 21:1016627 # 1
5.2150728627442995e-013 1:5 2:4 3:706 4:70 5:218 6:0.2 7:0.2 8:5138 9:794374 10:0 11:0 12:0 13:0 14:0 15:0.40000001 16:0.40000001 17:15.63 18:32.669998 19:1 20:631 21:961905 # 1
-5.2150728627442995e-013 1:76 2:105 3:3310 4:229 5:182 6:0.2 7:0.2 8:104204 9:111076 10:6 11:8.6000004 12:12.4 13:13 14:2 15:4.5999999 16:6 17:17.6 18:55.799999 19:136 20:84 21:15 # 1
5.2150728627442995e-013 1:2 2:2 3:1360 4:106 5:77 6:0.40000001 7:1.2 8:46607 9:22159 10:0.60000002 11:0.80000001 12:0.80000001 13:0 14:0 15:8.2200003 16:9.0200005 17:21.24 18:89.779999 19:1.4 20:196 21:972189 # 1
-5.2150728627442995e-013 1:52 2:1 3:5644 4:436 5:203 6:13.97 7:29.540001 8:391968 9:28302 10:3.99 11:16.17 12:48.299999 13:110.78 14:2.79 15:33.93 16:39.52 17:600.40002 18:1138.72 19:2.8 20:193 21:1102157 # 1
5.2150728627442995e-013 1:5 2:4 3:1145 4:177 5:82 6:0.2 7:0.2 8:268645 9:18606 10:1.4 11:4.1999998 12:4.1999998 13:0 14:1.6 15:5 16:5 17:23.799999 18:79.599998 19:1.5 20:614 21:984304 # 1
5.2150728627442995e-013 1:3 2:2 3:1200 4:84 5:44 6:0.2 7:0.2 8:68419 9:30007 10:0 11:0 12:0 13:0 14:0 15:0.80000001 16:1 17:16.6 18:26.799999 19:1 20:561 21:1019416 # 1
5.2150728627442995e-013 1:7 2:6 3:833 4:94 5:76 6:0.60000002 7:0.80000001 8:3504 9:22736 10:1.6 11:2.4000001 12:1.8 13:0 14:0.80000001 15:8.1800003 16:8.1800003 17:43.509998 18:71.459999 19:2.4000001 20:228 21:970579 # 1
-5.2150728627442995e-013 1:7 2:4 3:2241 4:235 5:202 6:0.40000001 7:0.40000001 8:127621 9:35747 10:2.5999999 11:4.1999998 12:4 13:0 14:0.40000001 15:2.5999999 16:3 17:166.39999 18:199 19:391 20:88 21:12 # 1
5.2150728627442995e-013 1:11 2:9 3:1686 4:81 5:67 6:0.2 7:0.2 8:4975 9:18963 10:1.4 11:1.4 12:1.4 13:0 14:0.60000002 15:1.8 16:3.2 17:22.4 18:47 19:3.2 20:266 21:971168 # 1
-5.2150728627442995e-013 1:2 2:0 3:694 4:71 5:77 6:0.2 7:0.2 8:123951 9:57396 10:0.2 11:0.2 12:1.6 13:3.8 14:0.40000001 15:1.4 16:2.4000001 17:14.4 18:24.6 19:146 20:95 21:5 # 1
5.2150728627442995e-013 1:9 2:7 3:619 4:68 5:60 6:0.80000001 7:0.80000001 8:26307 9:23684 10:0 11:0 12:0 13:0 14:0.40000001 15:0.40000001 16:0.40000001 17:59.599998 18:73.800003 19:2.2 20:1344 21:972406 # 1
-5.2150728627442995e-013 1:4 2:3 3:1260 4:238 5:219 6:0.2 7:0.2 8:123476 9:64198 10:9.6000004 11:15.4 12:48 13:60.599998 14:4.8000002 15:10.6 16:16.799999 17:22.799999 18:79.400002 19:142 20:93 21:7 # 1
5.2150728627442995e-013 1:3 2:2 3:627 4:86 5:56 6:0.2 7:0.2 8:178422 9:21013 10:1.4 11:1.4 12:1.4 13:0 14:8.6000004 15:0 16:0 17:20.4 18:25.200001 19:2 20:207 21:1024472 # 1
-5.2150728627442995e-013 1:10 2:2 3:1826 4:291 5:182 6:1.4 7:2 8:121406 9:74108 10:15.83 11:24.85 12:59.919998 13:68.540001 14:12.22 15:21.24 16:29.26 17:75.349998 18:223.45 19:218 20:86 21:14 # 1
5.2150728627442995e-013 1:11 2:5 3:1293 4:102 5:90 6:0.60000002 7:0.80000001 8:21387 9:22319 10:0 11:0 12:0 13:0 14:0 15:0.80000001 16:0.80000001 17:48.400002 18:147.60001 19:2 20:993 21:973275 # 1
-5.2150728627442995e-013 1:15 2:6 3:5508 4:436 5:337 6:3.5899999 7:1.2 8:133529 9:32417 10:4.3899999 11:9.9799995 12:17.370001 13:23.75 14:0.40000001 15:3.3900001 16:3.5899999 17:210.98 18:372.45999 19:164 20:70 21:30 # 1
5.2150728627442995e-013 1:0 2:0 3:815 4:60 5:47 6:0.2 7:0.2 8:1633 9:20397 10:0 11:0 12:0 13:0 14:0 15:1 16:1 17:15.8 18:17.4 19:1.2 20:2987 21:1014693 # 1
-5.2150728627442995e-013 1:24 2:2 3:2546 4:138 5:83 6:5.1999998 7:16.4 8:137284 9:24420 10:0 11:0 12:0 13:0 14:0 15:3.8 16:4 17:155 18:302.79999 19:874 20:86 21:12 # 1
-5.2150728627442995e-013 1:81 2:45 3:1479 4:180 5:199 6:0.80000001 7:2 8:110797 9:88252 10:3.01 11:12.83 12:12.83 13:0 14:1.4 15:10.62 16:11.02 17:61.52 18:123.65 19:335 20:90 21:10 # 1
5.2150728627442995e-013 1:50 2:68 3:964 4:96 5:66 6:0.60000002 7:0.60000002 8:5346 9:14303 10:0 11:0 12:0 13:0 14:0 15:3.2 16:3.2 17:240.8 18:78.199997 19:3.2 20:896 21:975246 # 1
-5.2150728627442995e-013 1:14 2:10 3:1338 4:123 5:128 6:0.60000002 7:0.40000001 8:122682 9:43380 10:6.5999999 11:10.8 12:17 13:30.799999 14:1 15:15 16:24.4 17:30 18:103.6 19:167 20:88 21:12 # 1
5.2150728627442995e-013 1:8 2:8 3:1255 4:100 5:85 6:0.60000002 7:0.40000001 8:3412 9:27903 10:0 11:0 12:0 13:0 14:0.2 15:5.4000001 16:5.4000001 17:37.400002 18:65.599998 19:2.5 20:913 21:975482 # 1
-5.2150728627442995e-013 1:8 2:6 3:1168 4:129 5:88 6:0.80000001 7:0.60000002 8:135994 9:31885 10:2 11:2 12:2 13:0 14:0.40000001 15:2 16:2 17:36.599998 18:47.799999 19:133 20:94 21:6 # 1
5.2150728627442995e-013 1:1 2:0 3:760 4:29 5:31 6:0.2 7:0.2 8:2795 9:15330 10:1 11:1.2 12:1.4 13:1.2 14:0.2 15:0.80000001 16:0.80000001 17:13.03 18:54.509998 19:1 20:129 21:1016087 # 1
-5.2150728627442995e-013 1:10 2:8 3:1942 4:232 5:253 6:0.60000002 7:0.60000002 8:101588 9:204344 10:9.1800003 11:14.17 12:48.700001 13:84.029999 14:6.9899998 15:27.940001 16:30.540001 17:48.099998 18:160.08 19:120 20:87 21:13 # 1
5.2150728627442995e-013 1:4 2:2 3:2764 4:146 5:145 6:0.2 7:0.2 8:5556 9:30468 10:0 11:0 12:0 13:0 14:0 15:0.80000001 16:0.80000001 17:27.200001 18:34.599998 19:1.6 20:553 21:977181 # 1
-5.2150728627442995e-013 1:8 2:1 3:2091 4:237 5:165 6:2.2 7:4 8:127579 9:86009 10:0 11:0 12:0 13:0 14:0 15:5.8000002 16:6 17:164.39999 18:214 19:844 20:87 21:11 # 1
5.2150728627442995e-013 1:8 2:7 3:1608 4:79 5:67 6:0.2 7:0.2 8:16265 9:17578 10:0 11:0 12:0 13:0 14:0 15:2.4000001 16:2.4000001 17:38 18:87.599998 19:3 20:691 21:978082 # 1
-5.2150728627442995e-013 1:83 2:108 3:2950 4:250 5:220 6:0.2 7:0.2 8:130756 9:75616 10:7.4000001 11:11.2 12:12.4 13:2.4000001 14:2.5999999 15:2.4000001 16:7.5999999 17:31.200001 18:83.400002 19:477 20:86 21:14 # 1
5.2150728627442995e-013 1:5 2:4 3:2096 4:137 5:105 6:0.2 7:0.2 8:4584 9:21087 10:0 11:0 12:0 13:0 14:0 15:1 16:1 17:20.040001 18:100 19:1.6 20:516 21:978044 # 1
-5.2150728627442995e-013 1:100 2:114 3:2815 4:196 5:123 6:1.79 7:2.99 8:144658 9:32908 10:0.2 11:0.2 12:0.2 13:0 14:0.60000002 15:20.92 16:26.690001 17:127.69 18:326.29001 19:496 20:85 21:15 # 1
5.2150728627442995e-013 1:1 2:0 3:1482 4:117 5:83 6:0.2 7:0.2 8:57224 9:63869 10:2.8099999 11:6.6100001 12:6.6100001 13:0 14:0 15:3.4100001 16:5.6100001 17:19.040001 18:34.869999 19:1.5 20:219 21:981977 # 1
-5.2150728627442995e-013 1:8 2:4 3:2803 4:125 5:72 6:0.60000002 7:2.2 8:147274 9:25176 10:0.60000002 11:0.60000002 12:0.60000002 13:0 14:0.2 15:1.6 16:1.8 17:55.599998 18:127.8 19:170 20:91 21:9 # 1
5.2150728627442995e-013 1:15 2:13 3:1720 4:151 5:92 6:0.60000002 7:1 8:340969 9:30999 10:0 11:0 12:0 13:0 14:0 15:6.8000002 16:12.4 17:53 18:85 19:1.5 20:400 21:979176 # 1
-5.2150728627442995e-013 1:71 2:80 3:1052 4:221 5:157 6:0.40000001 7:0.40000001 8:145004 9:48770 10:1.4 11:1.6 12:3.8 13:3.8 14:3.5999999 15:10.4 16:15.4 17:36.599998 18:120.4 19:896 20:89 21:11 # 1
5.2150728627442995e-013 1:8 2:3 3:1159 4:148 5:118 6:0.80000001 7:1 8:111780 9:31354 10:3.3900001 11:5.79 12:11.18 13:34.529999 14:0.80000001 15:4.5900002 16:9.5799999 17:49.099998 18:104.59 19:1.5 20:157 21:966175 # 1
-5.2150728627442995e-013 1:4 2:2 3:1153 4:76 5:157 6:0.40000001 7:1.8 8:147498 9:40987 10:0 11:0 12:0 13:0 14:7.1999998 15:2.5999999 16:4.8000002 17:194.60001 18:69.800003 19:579 20:92 21:8 # 1
5.2150728627442995e-013 1:2 2:0 3:915 4:89 5:86 6:0.40000001 7:0.60000002 8:8379 9:26797 10:0 11:0 12:0 13:0 14:0 15:2.4000001 16:2.4000001 17:35.470001 18:59.720001 19:3.2 20:675 21:979117 # 1
-5.2150728627442995e-013 1:24 2:18 3:3457 4:401 5:226 6:1 7:0.80000001 8:137036 9:87730 10:6.9899998 11:12.38 12:16.370001 13:20.76 14:4.9899998 15:4.3899999 16:7.1900001 17:54.09 18:157.49001 19:222 20:84 21:16 # 1
5.2150728627442995e-013 1:0 2:0 3:1425 4:92 5:53 6:0.2 7:0.2 8:214550 9:15664 10:0 11:0 12:0 13:0 14:0 15:0.40000001 16:0.40000001 17:15.8 18:31.6 19:1 20:2191 21:1009408 # 1
-5.2150728627442995e-013 1:15 2:9 3:841 4:148 5:104 6:1 7:0.80000001 8:156734 9:17341 10:3 11:4.1999998 12:4.1999998 13:0 14:0.2 15:7.4000001 16:10.4 17:61.400002 18:225.8 19:316 20:91 21:9 # 1
5.2150728627442995e-013 1:13 2:9 3:1555 4:165 5:96 6:0.60000002 7:0.60000002 8:90145 9:58107 10:1.4 11:4.1900001 12:4.3899999 13:0.60000002 14:1 15:2.4000001 16:9.3800001 17:36.330002 18:88.82 19:1.5 20:207 21:967243 # 1
-5.2150728627442995e-013 1:14 2:8 3:2329 4:146 5:92 6:1 7:1 8:148968 9:71628 10:0 11:0 12:0 13:0 14:0.40000001 15:6.4000001 16:10.2 17:73.199997 18:120 19:541 20:88 21:12 # 1
5.2150728627442995e-013 1:3 2:0 3:845 4:73 5:59 6:0.40000001 7:0.60000002 8:136822 9:23071 10:6.5999999 11:21.799999 12:48.400002 13:89 14:0.80000001 15:0.60000002 16:3 17:29.799999 18:93 19:1.8 20:206 21:987451 # 1
-5.2150728627442995e-013 1:3 2:2 3:1740 4:206 5:162 6:0.2 7:0.2 8:141298 9:107080 10:9.0200005 11:20.639999 12:42.889999 13:61.720001 14:1.2 15:4.8099999 16:6.0100002 17:22.85 18:124.45 19:135 20:84 21:16 # 1
5.2150728627442995e-013 1:1 2:0 3:810 4:55 5:68 6:0.2 7:0.2 8:3885 9:15299 10:0 11:0 12:0 13:0 14:0.2 15:1.2 16:1.2 17:15.6 18:39.200001 19:2 20:378 21:1016666 # 1
-5.2150728627442995e-013 1:2 2:0 3:2414 4:226 5:207 6:0.60000002 7:2 8:136711 9:124416 10:0 11:0 12:0 13:0 14:0 15:7.6199999 16:7.8200002 17:51.299999 18:143.09 19:599 20:89 21:11 # 1
5.2150728627442995e-013 1:39 2:56 3:929 4:64 5:55 6:0.40000001 7:2 8:4306 9:22554 10:0.40000001 11:0.40000001 12:0.40000001 13:0 14:0 15:0.60000002 16:0.80000001 17:20.4 18:47 19:1.5 20:182 21:999139 # 1
-5.2150728627442995e-013 1:7 2:5 3:1019 4:75 5:44 6:0.2 7:0.2 8:167825 9:17102 10:1 11:1.2 12:1.2 13:0 14:0.40000001 15:4.79 16:7.98 17:19.959999 18:51.700001 19:184 20:95 21:5 # 1
5.2150728627442995e-013 1:42 2:55 3:959 4:89 5:69 6:0.2 7:0.2 8:26378 9:26513 10:0.60000002 11:1.2 12:0.60000002 13:0 14:0 15:2.4000001 16:4.21 17:17.030001 18:40.880001 19:2 20:341 21:965472 # 1
-5.2150728627442995e-013 1:14 2:5 3:1030 4:198 5:179 6:1.2 7:1 8:166905 9:30638 10:0.2 11:0.2 12:0.2 13:0 14:0 15:13 16:31.200001 17:87.599998 18:197.8 19:563 20:90 21:10 # 1
5.2150728627442995e-013 1:6 2:5 3:1774 4:110 5:76 6:0.40000001 7:0.60000002 8:18733 9:21187 10:0.40000001 11:0.40000001 12:0.40000001 13:0 14:0 15:13.97 16:14.57 17:37.52 18:112.18 19:2.5999999 20:442 21:965008 # 1
-5.2150728627442995e-013 1:3 2:0 3:3953 4:340 5:251 6:0.60000002 7:1.8 8:147331 9:103576 10:1 11:2 12:2 13:0 14:0 15:7.21 16:8.0200005 17:84.769997 18:280.95999 19:325 20:79 21:21 # 1
5.2150728627442995e-013 1:6 2:6 3:1274 4:283 5:316 6:0.40000001 7:0.40000001 8:63796 9:601041 10:0 11:0 12:0 13:0 14:0 15:2.2 16:4.4000001 17:30.799999 18:107.8 19:1.5 20:658 21:960246 # 1
-5.2150728627442995e-013 1:23 2:12 3:1673 4:145 5:117 6:2 7:6.8000002 8:160268 9:57456 10:3.4000001 11:4.1999998 12:4.1999998 13:0 14:13.6 15:23.200001 16:25.799999 17:113.8 18:254.60001 19:581 20:87 21:13 # 1
5.2150728627442995e-013 1:1 2:0 3:1611 4:66 5:70 6:0.2 7:0.2 8:16723 9:50242 10:0 11:0 12:0 13:0 14:0 15:0.80000001 16:1 17:26 18:20.6 19:1.3 20:581 21:1019464 # 1
-5.2150728627442995e-013 1:19 2:4 3:3273 4:318 5:255 6:3 7:1.2 8:164691 9:56358 10:0 11:0 12:0 13:0 14:0.2 15:2.4000001 16:2.4000001 17:156 18:255.2 19:434 20:86 21:12 # 1
5.2150728627442995e-013 1:11 2:8 3:2661 4:141 5:119 6:0.60000002 7:0.60000002 8:16438 9:22723 10:0 11:0 12:0 13:0 14:0 15:1.2 16:1.6 17:33 18:51 19:1.6 20:1877 21:968390 # 1
-5.2150728627442995e-013 1:18 2:6 3:2174 4:231 5:135 6:2 7:3.4000001 8:168211 9:43126 10:3 11:4.8000002 12:3.5999999 13:0 14:4.5999999 15:11.8 16:16 17:128.39999 18:240.39999 19:368 20:85 21:14 # 1
5.2150728627442995e-013 1:2 2:1 3:1555 4:263 5:117 6:0.60000002 7:2 8:749837 9:68458 10:0 11:0 12:0 13:0 14:0 15:6.0100002 16:11.62 17:36.27 18:63.73 19:1 20:2255 21:1011769 # 1
-5.2150728627442995e-013 1:11 2:2 3:3454 4:182 5:143 6:1.2 7:1 8:176413 9:23893 10:0.40000001 11:0.40000001 12:0.40000001 13:0 14:3 15:2.8 16:20.799999 17:81.599998 18:183.8 19:321 20:90 21:10 # 1
5.2150728627442995e-013 1:1 2:0 3:1293 4:59 5:49 6:0.60000002 7:1 8:3767 9:14409 10:0 11:0 12:0 13:0 14:0 15:0.80000001 16:0.80000001 17:49.799999 18:61.75 19:2.4000001 20:1268 21:968080 # 1
-5.2150728627442995e-013 1:54 2:69 3:1720 4:143 5:105 6:0.80000001 7:1.2 8:175782 9:34995 10:0 11:0 12:0 13:0 14:0 15:17.4 16:24.200001 17:55.400002 18:75.400002 19:594 20:88 21:12 # 1
5.2150728627442995e-013 1:13 2:5 3:1129 4:167 5:99 6:0.40000001 7:0.60000002 8:282508 9:18904 10:12.57 11:23.950001 12:69.660004 13:153.28999 14:0.40000001 15:3.79 16:23.75 17:39.919998 18:165.07001 19:2.4000001 20:256 21:967705 # 1
-5.2150728627442995e-013 1:23 2:18 3:2996 4:257 5:265 6:1.4 7:1.6 8:170904 9:76164 10:7.3899999 11:16.57 12:29.540001 13:43.310001 14:0.80000001 15:1.2 16:1.8 17:79.239998 18:280.64001 19:212 20:81 21:19 # 1
5.2150728627442995e-013 1:51 2:69 3:1064 4:142 5:118 6:0.40000001 7:0.2 8:5288 9:24594 10:0 11:0 12:0 13:0 14:0 15:0.40000001 16:0.40000001 17:31.059999 18:52.709999 19:2.8 20:1752 21:969454 # 1
-5.2150728627442995e-013 1:16 2:11 3:5084 4:277 5:209 6:2 7:1.6 8:181781 9:53837 10:6.5999999 11:11.4 12:22.799999 13:30.799999 14:2.2 15:8 16:13.8 17:155 18:309.79999 19:362 20:84 21:15 # 1
5.2150728627442995e-013 1:28 2:40 3:943 4:123 5:228 6:0.2 7:0.2 8:7320 9:618319 10:0 11:0 12:0 13:0 14:0 15:2.4000001 16:2.4000001 17:15.8 18:35.400002 19:1 20:624 21:960032 # 1
-5.2150728627442995e-013 1:9 2:8 3:2967 4:221 5:147 6:0.2 7:0.2 8:185224 9:44145 10:11 11:30.4 12:67.599998 13:161.39999 14:0 15:29 16:48.599998 17:18.4 18:105.8 19:144 20:79 21:21 # 1
5.2150728627442995e-013 1:11 2:5 3:1522 4:244 5:123 6:0.80000001 7:1 8:140661 9:21563 10:5.21 11:10.82 12:25.450001 13:54.310001 14:0.80000001 15:3.4100001 16:28.66 17:72.949997 18:200.60001 19:2.2 20:167 21:977813 # 1
-5.2150728627442995e-013 1:10 2:10 3:1489 4:122 5:64 6:0.2 7:0.2 8:185016 9:46690 10:4.79 11:9.1800003 12:8.9799995 13:0 14:0 15:2.4000001 16:2.4000001 17:16.17 18:62.279999 19:195 20:92 21:8 # 1
5.2150728627442995e-013 1:7 2:4 3:1282 4:314 5:118 6:0.60000002 7:0.60000002 8:937754 9:24186 10:7.1999998 11:13.2 12:46.200001 13:78 14:3.2 15:15.4 16:18.799999 17:55 18:192.39999 19:1.2 20:144 21:989789 # 1
-5.2150728627442995e-013 1:50 2:65 3:2292 4:357 5:201 6:0.40000001 7:1.8 8:181979 9:75166 10:5.8000002 11:9.1999998 12:16.200001 13:15.4 14:1.4 15:5.4000001 16:8 17:33.799999 18:87 19:147 20:88 21:12 # 1
5.2150728627442995e-013 1:7 2:0 3:963 4:105 5:66 6:1.2 7:1.6 8:119224 9:19633 10:0 11:0 12:0 13:0 14:0 15:3.8 16:4.5999999 17:84 18:154.60001 19:1.5 20:1351 21:976717 # 1
-5.2150728627442995e-013 1:24 2:1 3:2888 4:503 5:325 6:6.1999998 7:3.2 8:189565 9:39458 10:0.40000001 11:0.40000001 12:0.40000001 13:0 14:0.40000001 15:3.4000001 16:4.4000001 17:268.39999 18:504.39999 19:337 20:78 21:22 # 1
5.2150728627442995e-013 1:8 2:5 3:1028 4:134 5:141 6:1 7:0.60000002 8:39910 9:46082 10:0 11:0 12:0 13:0 14:0.2 15:5.9899998 16:6.1900001 17:62.869999 18:130.74001 19:5 20:548 21:973145 # 1
-5.2150728627442995e-013 1:12 2:5 3:943 4:78 5:161 6:1.4 7:4.1999998 8:169313 9:185587 10:2.5999999 11:2.5999999 12:2.5999999 13:0 14:1 15:1.2 16:2.2 17:47.200001 18:87.599998 19:186 20:91 21:9 # 1
5.2150728627442995e-013 1:7 2:5 3:858 4:81 5:84 6:0.2 7:0.2 8:7141 9:26164 10:0 11:0 12:0 13:0 14:0.40000001 15:50.200001 16:50.599998 17:31 18:124.4 19:2 20:1407 21:971707 # 1
-5.2150728627442995e-013 1:2 2:1 3:1133 4:183 5:134 6:0.2 7:0.2 8:194225 9:21523 10:0 11:0 12:0 13:0 14:0 15:4.4000001 16:7 17:18 18:25.799999 19:667 20:94 21:6 # 1
5.2150728627442995e-013 1:57 2:55 3:1123 4:107 5:79 6:0.2 7:0.2 8:20746 9:36718 10:0 11:0 12:0 13:0 14:0 15:1.4 16:8.1999998 17:23.4 18:34 19:1.4 20:941 21:972674 # 1
-5.2150728627442995e-013 1:11 2:5 3:3115 4:250 5:206 6:3 7:2.4000001 8:197735 9:18979 10:3.8 11:7.5999999 12:7.5999999 13:0 14:0 15:1 16:1 17:304.60001 18:223.8 19:352 20:85 21:15 # 1
5.2150728627442995e-013 1:7 2:0 3:3739 4:162 5:141 6:0.80000001 7:3.21 8:92903 9:92426 10:6.21 11:8.2200003 12:7.8200002 13:0 14:0.80000001 15:10.62 16:14.43 17:42.279999 18:98.800003 19:5.1999998 20:234 21:977153 # 1
-5.2150728627442995e-013 1:13 2:0 3:3170 4:531 5:326 6:1 7:1.4 8:191399 9:60890 10:4.6100001 11:8.4200001 12:30.66 13:43.889999 14:0.80000001 15:15.43 16:27.450001 17:52.299999 18:218.64 19:138 20:85 21:15 # 1
5.2150728627442995e-013 1:11 2:10 3:2007 4:127 5:102 6:0.60000002 7:0.60000002 8:32665 9:49643 10:1.6 11:1.6 12:1.6 13:0 14:0.60000002 15:1.6 16:2 17:36.200001 18:62.400002 19:2 20:329 21:989029 # 1
-5.2150728627442995e-013 1:11 2:5 3:3900 4:149 5:134 6:0.60000002 7:0.60000002 8:197230 9:30298 10:0 11:0 12:0 13:0 14:0 15:1 16:1.8 17:34.200001 18:46.400002 19:394 20:91 21:9 # 1
5.2150728627442995e-013 1:2 2:0 3:1510 4:178 5:138 6:0.40000001 7:0.60000002 8:17912 9:30669 10:2.4000001 11:4.4000001 12:4.4000001 13:0 14:0.2 15:1.2 16:2 17:33.200001 18:66.599998 19:2.7 20:203 21:1003520 # 1
-5.2150728627442995e-013 1:9 2:5 3:2947 4:243 5:148 6:1.2 7:2.4000001 8:208635 9:32396 10:0 11:0 12:0 13:0 14:0.60000002 15:14.97 16:15.37 17:52.889999 18:128.34 19:1106 20:90 21:9 # 1
5.2150728627442995e-013 1:6 2:4 3:1627 4:148 5:69 6:1 7:1.2 8:263421 9:22570 10:0 11:0 12:0 13:0 14:0 15:0.80000001 16:0.80000001 17:80.839996 18:140.12 19:1.8 20:413 21:986381 # 1
-5.2150728627442995e-013 1:77 2:96 3:5275 4:461 5:387 6:3.99 7:1 8:211372 9:39920 10:4.1900001 11:9.7799997 12:43.509998 13:64.870003 14:0.2 15:23.75 16:26.15 17:188.42 18:449.89999 19:142 20:70 21:30 # 1
5.2150728627442995e-013 1:5 2:5 3:2175 4:83 5:77 6:0.60000002 7:0.60000002 8:17319 9:29789 10:0 11:0 12:0 13:0 14:0 15:2 16:2.4000001 17:42.599998 18:62.599998 19:1.5 20:425 21:988923 # 1
-5.2150728627442995e-013 1:43 2:54 3:1614 4:171 5:124 6:1.4 7:5.5999999 8:203635 9:111536 10:0 11:0 12:0 13:0 14:0 15:5.5999999 16:6.5999999 17:42.400002 18:76.599998 19:637 20:89 21:9 # 1
5.2150728627442995e-013 1:37 2:52 3:2153 4:158 5:62 6:0.40000001 7:0.60000002 8:154124 9:29953 10:0 11:0 12:0 13:0 14:0 15:4 16:7.1999998 17:33.799999 18:52.599998 19:2.5 20:494 21:981554 # 1
-5.2150728627442995e-013 1:7 2:5 3:581 4:65 5:65 6:0.80000001 7:0.60000002 8:216603 9:25199 10:4.8000002 11:7 12:10.6 13:15.8 14:0 15:6.4000001 16:6.8000002 17:48.799999 18:78 19:156 20:95 21:5 # 1
5.2150728627442995e-013 1:44 2:60 3:1758 4:109 5:72 6:0.2 7:0.2 8:44731 9:20281 10:0 11:0 12:0 13:0 14:0 15:1.8 16:1.8 17:15.8 18:36.400002 19:1.2 20:949 21:975736 # 1
-5.2150728627442995e-013 1:6 2:0 3:828 4:126 5:130 6:1.1900001 7:0.80000001 8:217177 9:25808 10:10.14 11:48.110001 12:122.47 13:260.82999 14:0.40000001 15:6.5599999 16:10.34 17:69.379997 18:222.07001 19:168 20:89 21:11 # 1
5.2150728627442995e-013 1:2 2:0 3:1318 4:108 5:95 6:0.40000001 7:0.80000001 8:4035 9:43515 10:0 11:0 12:0 13:0 14:0 15:0.80000001 16:0.80000001 17:29 18:46.599998 19:2.2 20:1046 21:973795 # 1
-5.2150728627442995e-013 1:18 2:9 3:1401 4:91 5:81 6:2 7:2 8:210993 9:71322 10:8 11:32.200001 12:64 13:107 14:1.6 15:13.4 16:13.4 17:112.6 18:228.39999 19:196 20:87 21:12 # 1
5.2150728627442995e-013 1:1 2:1 3:2118 4:129 5:71 6:0.40000001 7:0.2 8:383282 9:22756 10:0 11:0 12:0 13:0 14:0.40000001 15:7.4000001 16:10 17:35.400002 18:152.2 19:1 20:499 21:980013 # 1
-5.2150728627442995e-013 1:2 2:0 3:1200 4:134 5:128 6:0.60000002 7:0.60000002 8:208393 9:90332 10:17.370001 11:24.35 12:60.080002 13:78.239998 14:14.77 15:26.950001 16:31.74 17:29.940001 18:131.53999 19:126 20:90 21:10 # 1
5.2150728627442995e-013 1:1 2:1 3:2609 4:117 5:89 6:0.40000001 7:1 8:14928 9:84242 10:6.3899999 11:12.18 12:11.98 13:0 14:0.40000001 15:6.9899998 16:7.3899999 17:21.959999 18:39.919998 19:5 20:332 21:974861 # 1
-5.2150728627442995e-013 1:42 2:27 3:1230 4:173 5:143 6:2.5999999 7:2.5999999 8:215978 9:42779 10:0 11:0 12:0 13:0 14:0 15:9.1999998 16:32 17:158 18:381.79999 19:1496 20:87 21:13 # 1
5.2150728627442995e-013 1:27 2:15 3:1970 4:271 5:117 6:1.4 7:2.2 8:1067119 9:27957 10:2.2 11:2.2 12:7.1999998 13:11.4 14:13 15:12 16:15.2 17:101.8 18:190 19:3 20:154 21:975584 # 1
-5.2150728627442995e-013 1:10 2:4 3:1404 4:94 5:62 6:0.40000001 7:0.60000002 8:220900 9:19629 10:12.2 11:22.6 12:48.799999 13:115.4 14:1.4 15:3 16:24.200001 17:29.4 18:101.2 19:159 20:92 21:8 # 1
5.2150728627442995e-013 1:3 2:2 3:1178 4:107 5:79 6:0.40000001 7:1.8 8:14852 9:28976 10:2.2 11:3.2 12:3.2 13:0 14:1 15:0.40000001 16:0.40000001 17:20.799999 18:80.199997 19:1 20:236 21:1003650 # 1
-5.2150728627442995e-013 1:14 2:6 3:1797 4:403 5:268 6:1.8 7:8.8000002 8:208664 9:97152 10:0 11:0 12:0 13:0 14:0 15:1.6 16:2.2 17:78.199997 18:357.39999 19:522 20:87 21:12 # 1
5.2150728627442995e-013 1:43 2:59 3:1132 4:132 5:95 6:0.40000001 7:0.40000001 8:69187 9:22703 10:1.4 11:1.6 12:1.6 13:0 14:0.60000002 15:3.4100001 16:5.21 17:32.669998 18:82.970001 19:3 20:207 21:978217 # 1
-5.2150728627442995e-013 1:31 2:10 3:3783 4:386 5:327 6:9.8000002 7:8.6000004 8:219330 9:55674 10:2.8 11:7 12:12.2 13:23.200001 14:0.2 15:4 16:5.5999999 17:445.39999 18:717.59998 19:292 20:70 21:30 # 1
5.2150728627442995e-013 1:42 2:60 3:1112 4:87 5:68 6:0.2 7:0.2 8:80519 9:61557 10:0 11:0 12:0 13:0 14:0 15:10 16:12.2 17:15.4 18:62 19:1.3 20:469 21:979336 # 1
-5.2150728627442995e-013 1:47 2:41 3:1241 4:123 5:81 6:1.8 7:2.8 8:224930 9:43021 10:4.1999998 11:5.8000002 12:5.8000002 13:0 14:5.4000001 15:10.2 16:13.4 17:137.2 18:239.2 19:364 20:88 21:12 # 1
5.2150728627442995e-013 1:3 2:0 3:1418 4:124 5:99 6:1 7:2.2 8:17548 9:17883 10:0 11:0 12:0 13:0 14:0 15:0.40000001 16:0.40000001 17:76 18:129.60001 19:1.2 20:1338 21:976405 # 1
-5.2150728627442995e-013 1:89 2:53 3:2558 4:211 5:189 6:0.60000002 7:1 8:215246 9:121020 10:0 11:0 12:0 13:0 14:0.2 15:13.97 16:17.370001 17:236.92999 18:171.06 19:990 20:84 21:16 # 1
5.2150728627442995e-013 1:3 2:1 3:995 4:110 5:74 6:1.4 7:0.60000002 8:191157 9:15389 10:0 11:0 12:0 13:0 14:0 15:1.8 16:1.8 17:76.199997 18:127.4 19:1 20:497 21:1012941 # 1
-5.2150728627442995e-013 1:6 2:4 3:1532 4:130 5:55 6:0.60000002 7:1 8:228855 9:43159 10:0.40000001 11:0.60000002 12:0.60000002 13:0 14:0.40000001 15:0.40000001 16:0.40000001 17:54 18:114.4 19:323 20:93 21:7 # 1
5.2150728627442995e-013 1:1 2:0 3:1267 4:126 5:88 6:0.60000002 7:0.60000002 8:69701 9:27538 10:10.42 11:27.860001 12:55.91 13:91.379997 14:0.2 15:3.6099999 16:3.6099999 17:51.700001 18:102.4 19:2 20:152 21:979707 # 1
-5.2150728627442995e-013 1:24 2:15 3:3527 4:270 5:162 6:1.6 7:2.5999999 8:229708 9:51639 10:0.2 11:0.40000001 12:0.40000001 13:0 14:0.2 15:9.1999998 16:11.2 17:111.6 18:382.79999 19:563 20:79 21:21 # 1
5.2150728627442995e-013 1:4 2:0 3:1525 4:255 5:166 6:0.40000001 7:0.40000001 8:10103 9:28248 10:0 11:0 12:0 13:0 14:0.2 15:20.799999 16:21.6 17:35.400002 18:170.2 19:1.2 20:541 21:976770 # 1
-5.2150728627442995e-013 1:11 2:1 3:3556 4:348 5:267 6:3.4000001 7:2.2 8:225660 9:113178 10:6.8000002 11:13.4 12:67.800003 13:107.6 14:0.2 15:11.6 16:21.200001 17:219.8 18:416.60001 19:171 20:73 21:27 # 1
5.2150728627442995e-013 1:7 2:5 3:719 4:88 5:96 6:0.80000001 7:0.80000001 8:26625 9:22985 10:0 11:0 12:0 13:0 14:0 15:10.8 16:10.8 17:65.599998 18:101.6 19:1.5 20:708 21:991186 # 1
-5.2150728627442995e-013 1:9 2:5 3:2585 4:304 5:259 6:0.80000001 7:0.80000001 8:212643 9:195632 10:0 11:0 12:0 13:0 14:1.8 15:2.4000001 16:2.5999999 17:42.200001 18:82 19:828 20:88 21:12 # 1
5.2150728627442995e-013 1:10 2:7 3:1638 4:137 5:109 6:0.2 7:0.2 8:7565 9:25868 10:0 11:0 12:0 13:0 14:0.40000001 15:9.8000002 16:10.2 17:16.6 18:95.199997 19:2.8 20:473 21:976858 # 1
-5.2150728627442995e-013 1:9 2:6 3:1538 4:145 5:100 6:0.2 7:0.2 8:240721 9:48736 10:0.60000002 11:0.60000002 12:0.80000001 13:0.2 14:0.2 15:7.8000002 16:10 17:27.799999 18:33.400002 19:355 20:93 21:7 # 1
5.2150728627442995e-013 1:0 2:0 3:974 4:72 5:45 6:0.2 7:0.2 8:89310 9:13592 10:1.6 11:1.8 12:1.8 13:0 14:2.5899999 15:0.40000001 16:0.40000001 17:15.37 18:29.139999 19:2.2 20:145 21:1007922 # 1
-5.2150728627442995e-013 1:22 2:7 3:5753 4:715 5:476 6:3 7:2 8:222677 9:201168 10:26 11:51.599998 12:59.400002 13:46.200001 14:0.80000001 15:28.799999 16:33.599998 17:180.2 18:275.20001 19:173 20:72 21:28 # 1
5.2150728627442995e-013 1:6 2:2 3:2361 4:121 5:78 6:0.40000001 7:0.40000001 8:196740 9:83650 10:0.2 11:0.80000001 12:0.40000001 13:0 14:0 15:3.4000001 16:3.8 17:30.4 18:58.200001 19:3 20:2043 21:988526 # 1
-5.2150728627442995e-013 1:40 2:27 3:1866 4:210 5:124 6:2 7:5 8:256508 9:44587 10:0 11:0 12:0 13:0 14:0 15:9.1999998 16:14 17:124.8 18:203 19:579 20:87 21:13 # 1
5.2150728627442995e-013 1:7 2:7 3:1383 4:166 5:97 6:0.2 7:0.2 8:29617 9:34510 10:2.8 11:9.3999996 12:25.200001 13:51.599998 14:0 15:12.8 16:18.200001 17:16 18:63.799999 19:1 20:132 21:991891 # 1
-5.2150728627442995e-013 1:9 2:0 3:2683 4:382 5:164 6:0.80000001 7:0.80000001 8:256718 9:61215 10:8.6000004 11:23.4 12:117.4 13:206 14:1.4 15:12.4 16:47.599998 17:103.8 18:357.60001 19:128 20:80 21:20 # 1
5.2150728627442995e-013 1:9 2:4 3:1632 4:313 5:151 6:1.8 7:2 8:1238191 9:53430 10:1.2 11:2.2 12:2.2 13:0 14:0.80000001 15:8.8000002 16:12.2 17:113.8 18:201.39999 19:4 20:357 21:982474 # 1
-5.2150728627442995e-013 1:46 2:57 3:1935 4:157 5:93 6:2 7:1 8:262074 9:63713 10:0.40000001 11:0.60000002 12:0.60000002 13:0 14:0 15:3.8 16:4.1999998 17:101.2 18:179 19:365 20:90 21:10 # 1
5.2150728627442995e-013 1:2 2:1 3:884 4:111 5:91 6:0.2 7:0.2 8:17686 9:14948 10:0 11:0 12:0 13:0 14:0.40000001 15:49.700001 16:52.889999 17:15.57 18:181.24001 19:1.6 20:1614 21:965530 # 1
-5.2150728627442995e-013 1:24 2:17 3:2002 4:197 5:142 6:1.2 7:1.2 8:268033 9:42989 10:0 11:0 12:0 13:0 14:0 15:7 16:11.8 17:132.2 18:301.39999 19:907 20:82 21:18 # 1
-5.2150728627442995e-013 1:73 2:83 3:4405 4:540 5:461 6:8.4200001 7:2.4000001 8:272948 9:43129 10:6.4099998 11:8.8199997 12:8.6199999 13:0 14:1.4 15:6.21 16:11.22 17:405.81 18:612.21997 19:430 20:68 21:32 # 1
5.2150728627442995e-013 1:9 2:6 3:1408 4:147 5:111 6:0.80000001 7:0.80000001 8:94565 9:20446 10:0 11:0 12:0 13:0 14:0 15:6.8000002 16:6.8000002 17:41.200001 18:100.4 19:1.4 20:1994 21:969677 # 1
5.2150728627442995e-013 1:9 2:4 3:1062 4:144 5:124 6:0.2 7:0.2 8:112770 9:63316 10:11.6 11:20.4 12:18.200001 13:0 14:0.40000001 15:15.8 16:20.799999 17:18.4 18:67.599998 19:1 20:352 21:945795 # 1
-5.2150728627442995e-013 1:172 2:113 3:1427 4:171 5:134 6:0.60000002 7:3.3900001 8:261636 9:103649 10:0 11:0 12:0 13:0 14:0.80000001 15:4.9899998 16:5.3899999 17:62.279999 18:152.10001 19:744 20:92 21:8 # 1
5.2150728627442995e-013 1:8 2:5 3:1361 4:117 5:81 6:0.40000001 7:1.8 8:32845 9:44283 10:4.5900002 11:7.1900001 12:6.79 13:3.5899999 14:1.6 15:0.2 16:1.6 17:33.529999 18:108.98 19:1.5 20:183 21:967026 # 1
-5.2150728627442995e-013 1:30 2:5 3:5937 4:669 5:584 6:11 7:4.4000001 8:276587 9:43272 10:14.2 11:25.4 12:42 13:90.400002 14:0.2 15:18.4 16:22.799999 17:516.40002 18:816.20001 19:199 20:62 21:38 # 1
-5.2150728627442995e-013 1:8 2:0 3:3509 4:193 5:127 6:0.80000001 7:0.80000001 8:275966 9:47129 10:0 11:0 12:0 13:0 14:1.8 15:5.8000002 16:30 17:90 18:177.39999 19:359 20:86 21:13 # 1
5.2150728627442995e-013 1:9 2:7 3:2053 4:156 5:131 6:0.40000001 7:0.40000001 8:149799 9:52383 10:2.8 11:6.1999998 12:8.8000002 13:15 14:3 15:9.6000004 16:14.8 17:39.200001 18:74.199997 19:1.7 20:439 21:973485 # 1
5.2150728627442995e-013 1:8 2:5 3:1250 4:169 5:100 6:0.2 7:0.2 8:203156 9:26983 10:0 11:0 12:0 13:0 14:1.2 15:11.6 16:12.4 17:25 18:164.60001 19:1.7 20:700 21:988717 # 1
-5.2150728627442995e-013 1:34 2:5 3:2424 4:109 5:142 6:6.4000001 7:19.799999 8:40458 9:85259 10:3.8 11:4.1999998 12:9.3999996 13:9.6000004 14:1.6 15:8 16:15.8 17:202 18:402.79999 19:207 20:80 21:18 # 1
5.2150728627442995e-013 1:0 2:0 3:2123 4:343 5:106 6:0.80000001 7:1.2 8:518845 9:579056 10:8.1999998 11:13.8 12:13.8 13:0 14:3.8 15:8 16:8 17:33.200001 18:87.800003 19:7.1999998 20:288 21:976629 # 1
-5.2150728627442995e-013 1:36 2:10 3:2883 4:150 5:103 6:4.4099998 7:28.66 8:283299 9:24843 10:0 11:0 12:0 13:0 14:0 15:9.2200003 16:19.440001 17:288.57999 18:371.34 19:604 20:82 21:15 # 1
-5.2150728627442995e-013 1:5 2:4 3:1188 4:148 5:113 6:0.2 7:0.2 8:286813 9:28275 10:10.82 11:14.23 12:49.5 13:66.93 14:7.0100002 15:32.869999 16:35.27 17:15.63 18:101.4 19:126 20:93 21:7 # 1
5.2150728627442995e-013 1:35 2:46 3:728 4:138 5:84 6:0.2 7:0.2 8:114244 9:19674 10:0 11:0 12:0 13:0 14:0 15:1.4 16:2.8 17:16.200001 18:25.200001 19:1.3 20:971 21:1009992 # 1
5.2150728627442995e-013 1:10 2:7 3:1122 4:109 5:79 6:1.8 7:1.8 8:66512 9:38500 10:0 11:0 12:0 13:0 14:0 15:2.6099999 16:2.8099999 17:72.139999 18:159.92 19:3.5999999 20:540 21:970956 # 1
-5.2150728627442995e-013 1:21 2:18 3:1111 4:157 5:164 6:0.60000002 7:0.80000001 8:188084 9:634890 10:0 11:0 12:0 13:0 14:1.2 15:1.2 16:4.1999998 17:55.400002 18:129.39999 19:1083 20:88 21:11 # 1
-5.2150728627442995e-013 1:2 2:1 3:1436 4:93 5:81 6:0.2 7:0.2 8:287757 9:47872 10:12 11:24.6 12:52 13:120 14:0 15:31.4 16:60.799999 17:20.6 18:28.200001 19:148 20:92 21:8 # 1
5.2150728627442995e-013 1:235 2:253 3:2173 4:406 5:183 6:1.2 7:0.40000001 8:1050030 9:39200 10:6.5999999 11:7.8000002 12:13.2 13:12.4 14:1 15:14.4 16:15 17:64.199997 18:132.60001 19:2 20:143 21:975350 # 1
-5.2150728627442995e-013 1:28 2:11 3:2509 4:250 5:194 6:0.60000002 7:0.40000001 8:289605 9:47012 10:0 11:0 12:0 13:0 14:0 15:9.8000002 16:15.4 17:56.599998 18:166.2 19:550 20:82 21:18 # 1
5.2150728627442995e-013 1:45 2:61 3:976 4:91 5:46 6:1 7:2.5999999 8:36445 9:18870 10:8.3999996 11:11 12:20.4 13:50 14:0.2 15:3.5999999 16:6.4000001 17:85 18:118.4 19:3 20:213 21:969363 # 1
-5.2150728627442995e-013 1:37 2:43 3:1221 4:172 5:99 6:0.60000002 7:0.80000001 8:295353 9:33811 10:0.80000001 11:1.6 12:2 13:2.4000001 14:2.5999999 15:6.5999999 16:22 17:51.599998 18:129.60001 19:336 20:90 21:9 # 1
5.2150728627442995e-013 1:50 2:62 3:1290 4:136 5:79 6:1.2 7:0.80000001 8:278394 9:22175 10:1.6 11:4.1900001 12:8.9799995 13:55.490002 14:2 15:5.9899998 16:6.3899999 17:72.260002 18:107.98 19:1 20:213 21:970344 # 1
-5.2150728627442995e-013 1:77 2:101 3:2680 4:373 5:289 6:3.1900001 7:2.99 8:276666 9:110753 10:12.57 11:40.32 12:112.38 13:222.36 14:0 15:8.3800001 16:14.97 17:182.24001 18:380.23999 19:109 20:77 21:23 # 1
5.2150728627442995e-013 1:3 2:0 3:1944 4:196 5:103 6:0.40000001 7:0.40000001 8:369644 9:29704 10:0 11:0 12:0 13:0 14:0.2 15:17.6 16:25 17:37.200001 18:140.60001 19:1 20:517 21:975115 # 1
-5.2150728627442995e-013 1:18 2:8 3:1587 4:228 5:160 6:0.60000002 7:0.80000001 8:285782 9:75085 10:6 11:7.1999998 12:35.200001 13:59.799999 14:5 15:15.2 16:23.6 17:75.400002 18:208.8 19:236 20:88 21:11 # 1
5.2150728627442995e-013 1:5 2:4 3:1550 4:257 5:127 6:0.2 7:0.2 8:10676 9:41599 10:0 11:0 12:0 13:0 14:0 15:29.139999 16:29.139999 17:16.969999 18:102.59 19:2.2 20:1130 21:969322 # 1
-5.2150728627442995e-013 1:17 2:4 3:2404 4:223 5:156 6:4.1999998 7:3.2 8:285474 9:87061 10:13.8 11:22.200001 12:42.400002 13:74.800003 14:0 15:23.799999 16:24.6 17:232.2 18:457 19:276 20:82 21:18 # 1
5.2150728627442995e-013 1:23 2:9 3:1006 4:86 5:91 6:1 7:2.2 8:56527 9:48456 10:0 11:0 12:0 13:0 14:0.60000002 15:18.360001 16:18.76 17:59.080002 18:108.38 19:2.5999999 20:831 21:972132 # 1
-5.2150728627442995e-013 1:17 2:1 3:1919 4:278 5:210 6:3.6099999 7:1.2 8:295943 9:60406 10:18.040001 11:27.049999 12:94.790001 13:139.28 14:14.43 15:12.83 16:25.25 17:177.96001 18:391.17999 19:126 20:85 21:15 # 1
5.2150728627442995e-013 1:13 2:8 3:876 4:83 5:62 6:0.80000001 7:0.60000002 8:40199 9:21695 10:0 11:0 12:0 13:0 14:0 15:13.17 16:26.950001 17:64.870003 18:121.16 19:2.4000001 20:749 21:971332 # 1
-5.2150728627442995e-013 1:11 2:6 3:1512 4:98 5:59 6:0.40000001 7:0.40000001 8:313126 9:16402 10:3.2 11:4.1999998 12:5.1999998 13:11.4 14:3.5999999 15:3 16:4.1999998 17:39.799999 18:53.599998 19:163 20:92 21:7 # 1
5.2150728627442995e-013 1:18 2:16 3:1370 4:157 5:98 6:1.4 7:1.8 8:539887 9:63362 10:0 11:0 12:0 13:0 14:7.4000001 15:9 16:14.8 17:85.199997 18:134.39999 19:2 20:465 21:974966 # 1
-5.2150728627442995e-013 1:20 2:6 3:5112 4:629 5:541 6:8.1800003 7:3.3900001 8:309676 9:39994 10:2.5899999 11:4.1900001 12:4.1900001 13:0 14:1 15:6.1900001 16:7.5799999 17:536.92999 18:588.62 19:225 20:69 21:31 # 1
5.2150728627442995e-013 1:6 2:1 3:1043 4:160 5:116 6:1.6 7:1.6 8:25641 9:20715 10:0 11:0 12:0 13:0 14:0 15:2 16:3.4000001 17:84.800003 18:152.2 19:1 20:577 21:970690 # 1
-5.2150728627442995e-013 1:8 2:7 3:1329 4:162 5:97 6:0.2 7:0.2 8:256305 9:254541 10:10.22 11:16.23 12:21.84 13:17.23 14:0.40000001 15:10.22 16:13.03 17:20.24 18:71.940002 19:177 20:89 21:11 # 1
5.2150728627442995e-013 1:2 2:1 3:1632 4:128 5:102 6:0.40000001 7:0.2 8:92965 9:48978 10:0 11:0 12:0 13:0 14:0.2 15:5.5900002 16:5.5900002 17:27.35 18:89.220001 19:1.6 20:473 21:974620 # 1
-5.2150728627442995e-013 1:32 2:14 3:2141 4:221 5:115 6:3.5999999 7:17.6 8:108448 9:24365 10:1.6 11:2.2 12:2.2 13:0 14:0.2 15:15.2 16:16.799999 17:178.39999 18:355.20001 19:402 20:82 21:16 # 1
5.2150728627442995e-013 1:15 2:13 3:918 4:119 5:100 6:1.8 7:2.2 8:55951 9:18908 10:0 11:0 12:0 13:0 14:0 15:1.2 16:1.4 17:114.8 18:195.60001 19:1 20:1380 21:972787 # 1
-5.2150728627442995e-013 1:1 2:0 3:1086 4:222 5:94 6:0.2 7:0.2 8:254286 9:276011 10:5.1999998 11:11 12:15.2 13:10 14:0 15:2.4000001 16:2.4000001 17:22 18:38.400002 19:127 20:92 21:8 # 1
-5.2150728627442995e-013 1:24 2:7 3:1248 4:173 5:105 6:0.80000001 7:2.5899999 8:308625 9:114117 10:20.360001 11:31.540001 12:45.709999 13:30.139999 14:8.9799995 15:23.950001 16:33.130001 17:76.849998 18:254.28999 19:181 20:87 21:13 # 1
5.2150728627442995e-013 1:5 2:4 3:1098 4:189 5:292 6:0.40000001 7:1.8 8:21978 9:751823 10:0 11:0 12:0 13:0 14:0 15:0.40000001 16:0.40000001 17:33.200001 18:53 19:1 20:634 21:960042 # 1
-5.2150728627442995e-013 1:18 2:11 3:1424 4:242 5:242 6:2 7:2 8:238848 9:453209 10:58.400002 11:115 12:120.8 13:14.2 14:1 15:13.2 16:19 17:124.4 18:265.39999 19:272 20:79 21:21 # 1
5.2150728627442995e-013 1:4 2:1 3:2360 4:155 5:102 6:0.80000001 7:0.80000001 8:23647 9:28846 10:0 11:0 12:0 13:0 14:0 15:1.4 16:1.4 17:48 18:71.800003 19:1.8 20:1520 21:971381 # 1
-5.2150728627442995e-013 1:179 2:98 3:2391 4:319 5:265 6:0.40000001 7:0.40000001 8:310489 9:166378 10:4.9899998 11:15.37 12:15.17 13:0 14:2.4000001 15:1.2 16:5.1900001 17:48.900002 18:72.459999 19:286 20:88 21:12 # 1
5.2150728627442995e-013 1:1 2:0 3:3548 4:436 5:166 6:0.40000001 7:0.2 8:499823 9:82427 10:5 11:9.3999996 12:9.3999996 13:0 14:17.799999 15:11 16:11 17:12.8 18:125.4 19:4.5999999 20:327 21:976682 # 1
-5.2150728627442995e-013 1:26 2:5 3:5393 4:717 5:605 6:10.2 7:6 8:350758 9:35418 10:3.2 11:7.4000001 12:13.4 13:47.400002 14:0.40000001 15:3 16:4.1999998 17:507 18:806.40002 19:208 20:64 21:36 # 1
5.2150728627442995e-013 1:7 2:0 3:1924 4:177 5:133 6:0.40000001 7:0.60000002 8:354623 9:68081 10:3 11:4.8000002 12:4.5999999 13:0 14:2.4000001 15:3 16:26.200001 17:90.199997 18:119.6 19:2 20:206 21:968166 # 1
-5.2150728627442995e-013 1:6 2:5 3:1313 4:95 5:78 6:0.2 7:0.2 8:347551 9:64589 10:14.4 11:27.6 12:59 13:141.39999 14:0 15:33.200001 16:65.800003 17:15.4 18:63.200001 19:136 20:91 21:8 # 1
-5.2150728627442995e-013 1:2 2:0 3:814 4:64 5:74 6:2.4000001 7:3 8:288360 9:356713 10:41.799999 11:78.599998 12:78.599998 13:0 14:0 15:1.4 16:1.4 17:186.39999 18:194.39999 19:2 20:370 21:2161779 # 1
5.2150728627442995e-013 1:165 2:176 3:1057 4:242 5:83 6:1.8 7:0.60000002 8:1232467 9:6549 10:0 11:0 12:0 13:0 14:0 15:0 16:0 17:90.199997 18:127.6 19:2.5999999 20:8450 21:1864304 # 1
-5.2150728627442995e-013 1:1 2:1 3:198 4:18 5:20 6:0.2 7:0.2 8:7026 9:4055 10:0 11:0 12:0 13:0 14:0 15:0 16:0 17:15.63 18:16.83 19:1 20:8901 21:2243187 # 1
5.2150728627442995e-013 1:157 2:165 3:1225 4:220 5:16 6:1.8 7:2 8:1170456 9:9245 10:0 11:0 12:0 13:0 14:0 15:0.60000002 16:0.60000002 17:136.39999 18:199 19:2.4000001 20:8416 21:1864085 # 1
-5.2150728627442995e-013 1:39 2:1 3:3080 4:712 5:165 6:11 7:10.2 8:216458 9:176871 10:24.200001 11:130.8 12:348.20001 13:720.79999 14:2.2 15:43.400002 16:69.800003 17:568.40002 18:1051.2 19:6.4000001 20:119 21:1744413 # 1
5.2150728627442995e-013 1:8 2:7 3:1847 4:135 5:122 6:0.60000002 7:0.60000002 8:8556 9:22519 10:0 11:0 12:0 13:0 14:0 15:1 16:1.2 17:53.799999 18:79.800003 19:3.3 20:540 21:981954 # 1
-5.2150728627442995e-013 1:10 2:1 3:3917 4:490 5:883 6:8.3800001 7:3.5899999 8:286623 9:132176 10:7.7800002 11:7.7800002 12:7.7800002 13:0 14:0.2 15:0.80000001 16:0.80000001 17:464.26999 18:611.97998 19:2 20:245 21:1802988 # 1
5.2150728627442995e-013 1:11 2:8 3:3549 4:168 5:140 6:0.40000001 7:0.40000001 8:13296 9:40833 10:0 11:0 12:0 13:0 14:0 15:3.4000001 16:3.5999999 17:42.400002 18:102.8 19:1.2 20:1524 21:971326 # 1
-5.2150728627442995e-013 1:28 2:7 3:2915 4:409 5:343 6:10.18 7:4.79 8:291094 9:55552 10:0 11:0 12:0 13:0 14:0 15:14.57 16:17.959999 17:559.88 18:783.63 19:4 20:1461 21:1770421 # 1
5.2150728627442995e-013 1:1 2:1 3:985 4:127 5:101 6:0.80000001 7:0.80000001 8:9435 9:22703 10:3.5999999 11:3.5999999 12:3.5999999 13:0 14:0.60000002 15:11 16:11 17:43 18:145 19:3.4000001 20:282 21:971450 # 1
-5.2150728627442995e-013 1:21 2:4 3:5077 4:748 5:763 6:10.8 7:7.4000001 8:387795 9:50254 10:0 11:0 12:0 13:0 14:0 15:2.4000001 16:3.2 17:601.79999 18:847.59998 19:3 20:2541 21:1734995 # 1
5.2150728627442995e-013 1:130 2:126 3:1089 4:113 5:68 6:0.40000001 7:0.40000001 8:6399 9:19869 10:0 11:0 12:0 13:0 14:0.2 15:3.6099999 16:6.21 17:37.07 18:40.68 19:1.6 20:575 21:1018979 # 1
-5.2150728627442995e-013 1:11 2:0 3:3251 4:485 5:403 6:9.6000004 7:4 8:272686 9:21411 10:0 11:0 12:0 13:0 14:0 15:2.8 16:4.8000002 17:517.79999 18:686.20001 19:1.8 20:6464 21:1849030 # 1
5.2150728627442995e-013 1:9 2:1 3:1224 4:109 5:75 6:1.8 7:3.3900001 8:58668 9:23476 10:1.8 11:2 12:2.2 13:0.60000002 14:0.80000001 15:1 16:1 17:91.419998 18:170.46001 19:2 20:156 21:973889 # 1
-5.2150728627442995e-013 1:36 2:38 3:3291 4:461 5:336 6:8.8000002 7:3.8 8:265082 9:19912 10:0 11:0 12:0 13:0 14:0 15:3 16:5.4000001 17:506 18:644.59998 19:3 20:6445 21:1849002 # 1
5.2150728627442995e-013 1:0 2:0 3:935 4:93 5:55 6:0.40000001 7:1.8 8:101335 9:21527 10:0 11:0 12:0 13:0 14:0 15:1 16:1 17:32.799999 18:70.599998 19:1.4 20:1542 21:998768 # 1
-5.2150728627442995e-013 1:41 2:36 3:3265 4:527 5:470 6:9.7799997 7:2.79 8:255950 9:13672 10:0 11:0 12:0 13:0 14:0 15:0 16:0 17:474.85001 18:687.42999 19:2.5999999 20:7304 21:1859067 # 1
5.2150728627442995e-013 1:3 2:0 3:1008 4:72 5:58 6:2.2 7:3.5899999 8:53647 9:14442 10:2.2 11:6.9899998 12:10.58 13:17.17 14:0.2 15:0 16:0 17:162.67 18:198.39999 19:2.2 20:211 21:997396 # 1
-5.2150728627442995e-013 1:162 2:176 3:7560 4:506 5:410 6:9.6000004 7:12.8 8:242465 9:86281 10:0 11:0 12:0 13:0 14:0 15:0.40000001 16:0.60000002 17:506 18:677.59998 19:7.4000001 20:1351 21:1634653 # 1
5.2150728627442995e-013 1:23 2:22 3:593 4:100 5:84 6:0.60000002 7:0.60000002 8:27600 9:26262 10:0 11:0 12:0 13:0 14:0 15:0 16:0 17:47.400002 18:70 19:2 20:709 21:1008691 # 1
-5.2150728627442995e-013 1:10 2:1 3:3851 4:489 5:415 6:7.8000002 7:2.2 8:371419 9:94611 10:0 11:0 12:0 13:0 14:0 15:0 16:0 17:389 18:553.40002 19:2 20:8226 21:1835470 # 1
5.2150728627442995e-013 1:39 2:54 3:1231 4:136 5:124 6:1 7:0.40000001 8:66365 9:71032 10:0 11:0 12:0 13:0 14:0 15:0 16:0 17:51.599998 18:80.400002 19:2 20:1551 21:998853 # 1
-5.2150728627442995e-013 1:10 2:2 3:3473 4:350 5:194 6:6.3899999 7:4.79 8:336687 9:21143 10:0 11:0 12:0 13:0 14:0 15:3.5899999 16:5.1900001 17:457.09 18:570.65997 19:4.4000001 20:8008 21:1860413 # 1
5.2150728627442995e-013 1:19 2:17 3:1063 4:124 5:73 6:1.6 7:2.8 8:71903 9:23242 10:1.2 11:1.2 12:1.2 13:0 14:2 15:4 16:4.1999998 17:93 18:170 19:3 20:309 21:974800 # 1
-5.2150728627442995e-013 1:753 2:22 3:2350 4:146 5:111 6:2 7:0.60000002 8:259768 9:129649 10:0 11:0 12:0 13:0 14:0 15:25 16:25 17:97.599998 18:136.2 19:2.2 20:4728 21:1845357 # 1
5.2150728627442995e-013 1:0 2:0 3:961 4:88 5:66 6:0.2 7:0.2 8:93061 9:15958 10:1.2 11:2.2 12:2.2 13:0 14:1.6 15:1.2 16:1.2 17:15.37 18:27.540001 19:1 20:203 21:1011728 # 1
-5.2150728627442995e-013 1:1486 2:1 3:7266 4:157 5:192 6:1.6 7:1 8:98595 9:73892 10:0 11:0 12:0 13:0 14:1.2 15:6.8000002 16:12.8 17:91.800003 18:176.60001 19:2.8 20:2451 21:1712099 # 1
5.2150728627442995e-013 1:15 2:12 3:1613 4:154 5:112 6:0.40000001 7:1.8 8:23200 9:23589 10:4.5999999 11:5.8000002 12:15 13:26.4 14:2 15:5.4000001 16:8 17:34.400002 18:61 19:1.6 20:149 21:972920 # 1
-5.2150728627442995e-013 1:12 2:1 3:3163 4:474 5:414 6:8.8000002 7:2.4000001 8:261271 9:9070 10:0 11:0 12:0 13:0 14:0 15:0 16:0 17:436 18:621.59998 19:3 20:7201 21:1863333 # 1
5.2150728627442995e-013 1:1 2:1 3:1063 4:83 5:60 6:1 7:0.80000001 8:186842 9:16328 10:1.6 11:2.2 12:2.2 13:0 14:1.8 15:0.40000001 16:0.40000001 17:63.93 18:118.04 19:1 20:258 21:1016519 # 1
-5.2150728627442995e-013 1:6 2:0 3:2446 4:166 5:668 6:7 7:4.4000001 8:191203 9:133582 10:4.1999998 11:16.4 12:35 13:79.199997 14:0.40000001 15:0.60000002 16:0.80000001 17:338 18:465 19:4 20:332 21:1810845 # 1
5.2150728627442995e-013 1:24 2:37 3:1195 4:140 5:67 6:0.2 7:0.2 8:197189 9:16598 10:1.8 11:1.8 12:1.6 13:0 14:3.5999999 15:8.1999998 16:9 17:28.6 18:53.400002 19:4.6999998 20:330 21:992792 # 1
-5.2150728627442995e-013 1:38 2:45 3:1669 4:122 5:101 6:5 7:10.2 8:304523 9:270928 10:0 11:0 12:0 13:0 14:0 15:25.4 16:28.799999 17:303.39999 18:433.39999 19:1.8 20:8137 21:1864890 # 1
5.2150728627442995e-013 1:1 2:0 3:917 4:70 5:37 6:0.60000002 7:1 8:16214 9:19692 10:0 11:0 12:0 13:0 14:0 15:0.2 16:0.2 17:52.599998 18:98 19:3.5 20:2854 21:1009477 # 1
-5.2150728627442995e-013 1:8 2:0 3:3193 4:442 5:385 6:8.0200005 7:2 8:278616 9:17581 10:0 11:0 12:0 13:0 14:0 15:0 16:0 17:388.38 18:552.71002 19:2 20:7216 21:1866756 # 1
5.2150728627442995e-013 1:37 2:55 3:956 4:81 5:40 6:0.40000001 7:0.80000001 8:296870 9:22289 10:0 11:0 12:0 13:0 14:0 15:4.1999998 16:4.4000001 17:33.799999 18:75.400002 19:1.5 20:1729 21:1009814 # 1
-5.2150728627442995e-013 1:12 2:1 3:3302 4:508 5:410 6:9.6000004 7:3.2 8:468033 9:12205 10:0 11:0 12:0 13:0 14:0 15:0 16:0 17:484.20001 18:699.40002 19:2.5999999 20:7838 21:1862467 # 1
5.2150728627442995e-013 1:1 2:0 3:1130 4:96 5:49 6:0.2 7:0.2 8:106879 9:15422 10:1.8 11:5.4000001 12:11 13:23.799999 14:0.40000001 15:13.2 16:13.8 17:16 18:55.599998 19:2 20:134 21:1013482 # 1
-5.2150728627442995e-013 1:8 2:2 3:1816 4:257 5:216 6:6.0100002 7:3.21 8:230537 9:47539 10:0 11:0 12:0 13:0 14:0 15:3.6099999 16:6.6100001 17:383.37 18:449.29999 19:3 20:10875 21:1874171 # 1
5.2150728627442995e-013 1:17 2:25 3:1029 4:109 5:83 6:0.2 7:0.2 8:91929 9:20653 10:0.60000002 11:0.60000002 12:0.60000002 13:0 14:0.80000001 15:2 16:2 17:16.57 18:38.720001 19:2 20:252 21:1012862 # 1
-5.2150728627442995e-013 1:10 2:1 3:3107 4:446 5:377 6:9.1999998 7:3 8:352305 9:10765 10:0 11:0 12:0 13:0 14:0 15:0 16:0 17:480.20001 18:668 19:1.6 20:8647 21:1866547 # 1
5.2150728627442995e-013 1:5 2:3 3:1038 4:77 5:38 6:1 7:1.2 8:308260 9:13559 10:7.4000001 11:13 12:24.4 13:37.200001 14:6.4000001 15:3 16:4.1999998 17:54.400002 18:155 19:1.7 20:145 21:1010936 # 1
-5.2150728627442995e-013 1:8 2:0 3:5541 4:469 5:407 6:7.5999999 7:2.2 8:209351 9:11982 10:0 11:0 12:0 13:0 14:0.2 15:0.2 16:0.2 17:372 18:544.40002 19:3.5999999 20:482 21:1744770 # 1
5.2150728627442995e-013 1:10 2:5 3:1185 4:126 5:80 6:0.80000001 7:1 8:130493 9:25628 10:2.8099999 11:7.4099998 12:11.42 13:44.889999 14:2 15:2 16:3.6099999 17:54.509998 18:121.84 19:1 20:295 21:977643 # 1
-5.2150728627442995e-013 1:9 2:0 3:1731 4:246 5:188 6:6.3899999 7:4.3899999 8:163671 9:33692 10:0 11:0 12:0 13:0 14:0 15:4.3899999 16:5.79 17:400.79999 18:489.01999 19:1.8 20:3659 21:1815918 # 1
5.2150728627442995e-013 1:1 2:0 3:996 4:85 5:55 6:0.40000001 7:0.40000001 8:16667 9:36431 10:0 11:0 12:0 13:0 14:0 15:1 16:1.4 17:35.529999 18:52.099998 19:2 20:2979 21:1010114 # 1
-5.2150728627442995e-013 1:21 2:1 3:4547 4:1070 5:707 6:9 7:6 8:461040 9:51939 10:0 11:0 12:0 13:0 14:0 15:10.8 16:20.799999 17:431.39999 18:719 19:5.4000001 20:2182 21:1727709 # 1
5.2150728627442995e-013 1:26 2:36 3:926 4:59 5:38 6:0.80000001 7:0.80000001 8:135371 9:42672 10:0 11:0 12:0 13:0 14:0 15:1.4 16:1.8 17:67 18:136 19:1 20:635 21:1016406 # 1
-5.2150728627442995e-013 1:10 2:1 3:3338 4:478 5:417 6:8.6000004 7:2.4000001 8:328815 9:18709 10:0 11:0 12:0 13:0 14:0 15:0 16:0 17:434.60001 18:629 19:2.8 20:7381 21:1874141 # 1
5.2150728627442995e-013 1:2 2:0 3:794 4:33 5:39 6:0.40000001 7:0.80000001 8:2305 9:14686 10:0 11:0 12:0 13:0 14:0.80000001 15:0.40000001 16:0.60000002 17:43.110001 18:52.889999 19:1 20:1563 21:1022057 # 1
-5.2150728627442995e-013 1:28 2:28 3:2755 4:385 5:340 6:7.8200002 7:2.2 8:249104 9:74852 10:0 11:0 12:0 13:0 14:0 15:0 16:0 17:372.75 18:548.29999 19:2 20:7525 21:1868382 # 1
5.2150728627442995e-013 1:11 2:10 3:2961 4:141 5:102 6:0.2 7:0.2 8:94910 9:22005 10:0 11:0 12:0 13:0 14:0.60000002 15:3.5899999 16:3.5899999 17:18.76 18:54.889999 19:1 20:329 21:976061 # 1
-5.2150728627442995e-013 1:79 2:28 3:8284 4:691 5:447 6:9.6000004 7:12 8:465858 9:141015 10:10 11:19.200001 12:19.200001 13:0 14:7.4000001 15:3.8 16:4.4000001 17:522 18:759.40002 19:8.6000004 20:271 21:1596195 # 1
5.2150728627442995e-013 1:3 2:2 3:922 4:101 5:65 6:0.80000001 7:3.79 8:4190 9:16327 10:2.2 11:2.2 12:2.2 13:0 14:0.80000001 15:1.4 16:1.4 17:51.099998 18:128.14 19:1.3 20:211 21:1022715 # 1
-5.2150728627442995e-013 1:13 2:1 3:3195 4:475 5:372 6:9.8000002 7:3.8 8:256291 9:9559 10:0 11:0 12:0 13:0 14:0 15:0 16:0 17:429 18:646.79999 19:2 20:6118 21:1854101 # 1
5.2150728627442995e-013 1:182 2:199 3:1134 4:210 5:73 6:0.60000002 7:5.4099998 8:1011772 9:54133 10:0 11:0 12:0 13:0 14:0.2 15:3.8099999 16:3.8099999 17:39.68 18:120.04 19:1 20:429 21:1032951 # 1
-5.2150728627442995e-013 1:38 2:29 3:2141 4:214 5:170 6:6.4000001 7:11.6 8:272617 9:86291 10:0 11:0 12:0 13:0 14:0 15:3 16:3.2 17:438.20001 18:550 19:4.4000001 20:1117 21:1789931 # 1
5.2150728627442995e-013 1:62 2:79 3:1022 4:113 5:81 6:0.60000002 7:1.8 8:98428 9:29898 10:1.2 11:1.2 12:1.2 13:0 14:2.4000001 15:1.2 16:1.2 17:28.799999 18:46.599998 19:1 20:179 21:1015712 # 1
-5.2150728627442995e-013 1:60 2:31 3:6355 4:358 5:264 6:6 7:13.8 8:251366 9:242337 10:0 11:0 12:0 13:0 14:0 15:13.6 16:25.4 17:439.20001 18:593 19:3.8 20:3155 21:1653723 # 1
5.2150728627442995e-013 1:4 2:3 3:622 4:64 5:50 6:0.60000002 7:0.80000001 8:2705 9:21780 10:2 11:2 12:2 13:0 14:1.4 15:2 16:2 17:43.400002 18:68.199997 19:2.3 20:303 21:1023552 # 1
-5.2150728627442995e-013 1:9 2:0 3:2555 4:397 5:314 6:8.6000004 7:3.8 8:510619 9:46678 10:0 11:0 12:0 13:0 14:0 15:0 16:0 17:629.79999 18:583 19:3.5999999 20:8741 21:1864907 # 1
5.2150728627442995e-013 1:3 2:3 3:599 4:56 5:47 6:0.60000002 7:0.80000001 8:6105 9:17181 10:2.2 11:6.5999999 12:8.1999998 13:6.5999999 14:1.2 15:0 16:0 17:43.599998 18:70.599998 19:2 20:149 21:1023728 # 1
-5.2150728627442995e-013 1:8 2:0 3:2896 4:438 5:400 6:8.1999998 7:2 8:238898 9:25251 10:0 11:0 12:0 13:0 14:0 15:0 16:0 17:384.20001 18:543.40002 19:2.2 20:7384 21:1874275 # 1
5.2150728627442995e-013 1:0 2:0 3:1334 4:123 5:107 6:0.2 7:0.2 8:13610 9:29899 10:0 11:0 12:0 13:0 14:0 15:1.8 16:1.8 17:16.629999 18:50.5 19:1.5 20:557 21:1024446 # 1
-5.2150728627442995e-013 1:15 2:1 3:5274 4:647 5:664 6:8 7:3.8 8:417904 9:48173 10:0 11:0 12:0 13:0 14:0 15:3.4000001 16:4.8000002 17:427 18:681.79999 19:5.8000002 20:1860 21:1725293 # 1
5.2150728627442995e-013 1:14 2:0 3:1800 4:193 5:122 6:1.6 7:4.79 8:1102299 9:39041 10:17.959999 11:66.470001 12:80.440002 13:47.700001 14:0 15:29.139999 16:71.459999 17:88.019997 18:138.72 19:1.5 20:1359 21:989162 # 1
-5.2150728627442995e-013 1:38 2:45 3:2367 4:294 5:231 6:7.1900001 7:3.3900001 8:287347 9:32525 10:0 11:0 12:0 13:0 14:0 15:2.2 16:2.79 17:408.17999 18:530.53998 19:4 20:2374 21:1783503 # 1
5.2150728627442995e-013 1:1 2:1 3:1937 4:127 5:85 6:0.40000001 7:1 8:47917 9:30954 10:5.1999998 11:12.4 12:14.8 13:10.6 14:1.2 15:8.3999996 16:8.8000002 17:31 18:67.599998 19:1.2 20:142 21:1013344 # 1
-5.2150728627442995e-013 1:12 2:1 3:3437 4:508 5:704 6:9.3999996 7:4.4000001 8:203779 9:59995 10:0 11:0 12:0 13:0 14:0 15:0.2 16:0.2 17:421.39999 18:642.40002 19:4.1999998 20:2727 21:1737790 # 1
5.2150728627442995e-013 1:3 2:0 3:995 4:75 5:69 6:0.80000001 7:1 8:66503 9:19072 10:1.2 11:1.4 12:1.4 13:0 14:0.2 15:9.8000002 16:18.4 17:61 18:75 19:1 20:211 21:1014606 # 1
-5.2150728627442995e-013 1:4 2:0 3:2306 4:146 5:41 6:3.8 7:4.5999999 8:353240 9:40932 10:0 11:0 12:0 13:0 14:0 15:8.1999998 16:15.8 17:268.60001 18:442 19:3.8 20:2911 21:1799469 # 1
5.2150728627442995e-013 1:0 2:0 3:2015 4:76 5:67 6:0.2 7:0.2 8:40551 9:49200 10:4.4000001 11:4.4000001 12:4.1999998 13:0 14:1.8 15:1.6 16:1.6 17:15.4 18:28 19:1 20:178 21:1013480 # 1
-5.2150728627442995e-013 1:29 2:6 3:7029 4:678 5:599 6:7.7800002 7:3.5899999 8:528984 9:237007 10:9.1800003 11:48.099998 12:137.33 13:286.23001 14:2.99 15:52.299999 16:79.040001 17:453.89001 18:662.66998 19:9 20:190 21:1538338 # 1
5.2150728627442995e-013 1:5 2:4 3:796 4:58 5:51 6:0.2 7:0.2 8:16130 9:37792 10:4.0100002 11:6.4099998 12:5.6100001 13:0 14:1 15:1.8 16:1.8 17:19.24 18:59.52 19:2 20:234 21:1011745 # 1
-5.2150728627442995e-013 1:3 2:0 3:1613 4:226 5:397 6:2.5999999 7:2.8 8:474325 9:108778 10:0 11:0 12:0 13:0 14:1.4 15:19.799999 16:25.4 17:207.8 18:421.20001 19:3.8 20:1140 21:1820253 # 1
5.2150728627442995e-013 1:13 2:12 3:1683 4:218 5:125 6:1 7:3.5999999 8:1328599 9:1260805 10:0 11:0 12:0 13:0 14:0.60000002 15:9.8000002 16:12 17:46.799999 18:110 19:2 20:388 21:1015101 # 1
-5.2150728627442995e-013 1:33 2:7 3:6062 4:617 5:627 6:8.7799997 7:9.3800001 8:570314 9:337127 10:12.18 11:66.269997 12:191.62 13:441.12 14:3.1900001 15:52.5 16:89.019997 17:482.63 18:761.88 19:7.4000001 20:115 21:1539693 # 1
5.2150728627442995e-013 1:1 2:1 3:473 4:44 5:42 6:0.40000001 7:0.60000002 8:2302 9:24438 10:1.8 11:2.5999999 12:2 13:0 14:1.4 15:0.80000001 16:0.80000001 17:38.400002 18:59 19:2 20:206 21:1024472 # 1
-5.2150728627442995e-013 1:8 2:0 3:3238 4:472 5:414 6:8 7:2.2 8:242440 9:25070 10:0 11:0 12:0 13:0 14:0 15:1 16:2 17:384.20001 18:558.40002 19:3.2 20:735 21:1759242 # 1
5.2150728627442995e-013 1:0 2:0 3:2079 4:82 5:69 6:0.2 7:0.2 8:32768 9:35550 10:2.2 11:3.3900001 12:3.1900001 13:0 14:0 15:0.80000001 16:0.80000001 17:15.77 18:98.199997 19:1 20:158 21:1013305 # 1
-5.2150728627442995e-013 1:7 2:0 3:3237 4:403 5:344 6:6.5999999 7:1.8 8:242204 9:61619 10:0 11:0 12:0 13:0 14:0 15:0 16:0 17:313.39999 18:449.20001 19:2.4000001 20:7714 21:1871030 # 1
5.2150728627442995e-013 1:1 2:1 3:1342 4:153 5:79 6:0.2 7:0.2 8:75258 9:19540 10:0 11:0 12:0 13:0 14:0 15:1 16:1.8 17:39 18:62.799999 19:2.2 20:422 21:988357 # 1
-5.2150728627442995e-013 1:8 2:0 3:4171 4:556 5:512 6:8 7:2.2 8:410525 9:140796 10:0 11:0 12:0 13:0 14:0 15:0.40000001 16:0.40000001 17:382.60001 18:562.79999 19:3.4000001 20:454 21:1757598 # 1
5.2150728627442995e-013 1:33 2:47 3:967 4:78 5:46 6:0.40000001 7:0.60000002 8:36104 9:46064 10:0 11:0 12:0 13:0 14:0 15:1.2 16:1.2 17:35.599998 18:92 19:1 20:2953 21:1014126 # 1
-5.2150728627442995e-013 1:26 2:27 3:2912 4:454 5:369 6:7.4000001 7:2 8:206378 9:14665 10:0 11:0 12:0 13:0 14:0 15:0 16:0 17:365.79999 18:525 19:3 20:11640 21:1881640 # 1
5.2150728627442995e-013 1:5 2:5 3:1958 4:262 5:135 6:0.2 7:0.2 8:772197 9:709935 10:0 11:0 12:0 13:0 14:0 15:8.1999998 16:16 17:15.8 18:45.400002 19:3.2 20:3411 21:1036616 # 1
-5.2150728627442995e-013 1:9 2:1 3:3007 4:418 5:378 6:7.4000001 7:2 8:458899 9:227474 10:0 11:0 12:0 13:0 14:0 15:12.8 16:25.200001 17:344.39999 18:503.20001 19:2.2 20:6462 21:1845981 # 1
5.2150728627442995e-013 1:71 2:70 3:1029 4:119 5:83 6:0.60000002 7:1.8 8:54702 9:51872 10:0 11:0 12:0 13:0 14:0 15:1.4 16:2.2 17:50.400002 18:64.800003 19:1.5 20:1181 21:1001486 # 1
-5.2150728627442995e-013 1:7 2:0 3:4160 4:267 5:208 6:7.1999998 7:18 8:244849 9:21467 10:2 11:9.1999998 12:24.200001 13:42.200001 14:1 15:0.2 16:0.2 17:347.60001 18:531.20001 19:3.5999999 20:149 21:1750672 # 1
5.2150728627442995e-013 1:1 2:0 3:1364 4:54 5:57 6:1.2 7:3.1900001 8:57963 9:21216 10:0.60000002 11:0.60000002 12:0.60000002 13:0 14:0.2 15:4.1900001 16:6.5900002 17:85.029999 18:154.69 19:1 20:219 21:987281 # 1
-5.2150728627442995e-013 1:57 2:76 3:2674 4:346 5:273 6:5.3899999 7:4.1900001 8:390009 9:21069 10:0 11:0 12:0 13:0 14:0 15:8.7799997 16:9.5799999 17:279.23999 18:485.03 19:2.8 20:3119 21:1759583 # 1
5.2150728627442995e-013 1:5 2:0 3:2406 4:331 5:97 6:0.60000002 7:2 8:968395 9:62250 10:0.60000002 11:11.8 12:28 13:66.400002 14:0 15:7 16:34.599998 17:47.200001 18:123.8 19:1.4 20:240 21:1016227 # 1
-5.2150728627442995e-013 1:10 2:0 3:3003 4:447 5:383 6:9 7:2.8 8:273594 9:10059 10:0 11:0 12:0 13:0 14:0 15:0 16:0 17:460 18:649.20001 19:3.4000001 20:8659 21:1865656 # 1
5.2150728627442995e-013 1:3 2:2 3:840 4:59 5:38 6:0.2 7:0.2 8:3682 9:14522 10:2.5899999 11:2.79 12:2.79 13:0 14:0.40000001 15:20.76 16:20.76 17:15.37 18:91.82 19:1 20:158 21:1011914 # 1
-5.2150728627442995e-013 1:10 2:0 3:3467 4:567 5:446 6:8.3999996 7:3.2 8:837479 9:24967 10:0 11:0 12:0 13:0 14:0 15:0.60000002 16:0.80000001 17:427.39999 18:623 19:5 20:2972 21:1762784 # 1
5.2150728627442995e-013 1:4 2:2 3:879 4:95 5:56 6:0.60000002 7:0.60000002 8:229339 9:14622 10:0 11:0 12:0 13:0 14:0 15:1.2 16:1.2 17:196.8 18:95 19:2 20:577 21:1015192 # 1
-5.2150728627442995e-013 1:10 2:1 3:2866 4:424 5:386 6:7.4000001 7:2.4000001 8:212790 9:119991 10:0 11:0 12:0 13:0 14:0 15:0 16:0 17:368.79999 18:532.40002 19:2.8 20:6457 21:1845248 # 1
5.2150728627442995e-013 1:1 2:0 3:2435 4:365 5:106 6:0.60000002 7:3.1800001 8:543956 9:75753 10:0.80000001 11:0.80000001 12:0.80000001 13:0 14:0 15:1.99 16:1.99 17:23.459999 18:71.169998 19:5.5999999 20:2173 21:983060 # 1
-5.2150728627442995e-013 1:12 2:1 3:1153 4:76 5:44 6:8.6000004 7:12 8:90970 9:74499 10:0.2 11:1.2 12:0.40000001 13:0 14:0 15:7.4000001 16:10.8 17:371.60001 18:579 19:1.4 20:4622 21:1849155 # 1
5.2150728627442995e-013 1:2 2:1 3:659 4:73 5:39 6:0.40000001 7:0.40000001 8:130243 9:30148 10:5.1900001 11:15.57 12:25.15 13:48.900002 14:0.60000002 15:2 16:2.99 17:21.360001 18:109.98 19:1 20:142 21:1022235 # 1
-5.2150728627442995e-013 1:35 2:8 3:4319 4:388 5:295 6:5.1599998 7:2.78 8:359506 9:31978 10:1.98 11:3.5699999 12:3.5699999 13:0 14:4.7600002 15:27.18 16:35.91 17:339.09 18:496.82999 19:478 20:71 21:28 # 1
5.2150728627442995e-013 1:34 2:49 3:481 4:46 5:40 6:0.40000001 7:1.8 8:4978 9:18275 10:1.4 11:1.6 12:1.2 13:0 14:0.60000002 15:0.2 16:0.2 17:20.84 18:36.470001 19:1 20:243 21:1026964 # 1
-5.2150728627442995e-013 1:1845 2:13 3:4377 4:125 5:118 6:3.8 7:4 8:33563 9:62630 10:1.4 11:1.8 12:1.6 13:0 14:0.80000001 15:2.2 16:2.5999999 17:184.60001 18:289.79999 19:4.1999998 20:376 21:1512704 # 1
5.2150728627442995e-013 1:1 2:0 3:843 4:83 5:56 6:0.40000001 7:0.60000002 8:73773 9:21665 10:0 11:0 12:0 13:0 14:0 15:0.40000001 16:0.40000001 17:29.200001 18:150.39999 19:4 20:625 21:1032739 # 1
-5.2150728627442995e-013 1:10 2:1 3:1612 4:410 5:68 6:2.8 7:2.5999999 8:137882 9:42400 10:0 11:0 12:0 13:0 14:0 15:5 16:6.5999999 17:210 18:218 19:1.6 20:2281 21:1805726 # 1
5.2150728627442995e-013 1:1 2:0 3:887 4:62 5:64 6:0.2 7:0.2 8:30083 9:16777 10:1.4 11:1.8 12:1.8 13:0 14:0 15:2.5999999 16:4.4000001 17:15.6 18:37.400002 19:1 20:241 21:1014226 # 1
-5.2150728627442995e-013 1:6 2:0 3:1474 4:217 5:222 6:4.5999999 7:2.8 8:168369 9:45720 10:0 11:0 12:0 13:0 14:0 15:3.8 16:6.5999999 17:307.20001 18:351.79999 19:1.8 20:3704 21:1820309 # 1
5.2150728627442995e-013 1:14 2:12 3:903 4:105 5:92 6:0.60000002 7:0.80000001 8:44847 9:29587 10:1.8 11:1.8 12:1.8 13:0 14:0.40000001 15:2.8 16:2.8 17:52.400002 18:76.800003 19:1.2 20:230 21:1016176 # 1
-5.2150728627442995e-013 1:32 2:45 3:1301 4:218 5:291 6:2 7:2 8:582646 9:151253 10:16.969999 11:33.529999 12:38.119999 13:14.77 14:23.35 15:3.5899999 16:5.79 17:173.25 18:168.46001 19:3.2 20:189 21:1809574 # 1
5.2150728627442995e-013 1:1 2:1 3:1622 4:141 5:171 6:0.2 7:0.2 8:361119 9:115977 10:0.2 11:4.8000002 12:6.8000002 13:7.4000001 14:2.4000001 15:1.8 16:1.8 17:15.4 18:29 19:1 20:143 21:1046370 # 1
-5.2150728627442995e-013 1:11 2:0 3:2920 4:403 5:351 6:7.5999999 7:2.8 8:226968 9:22823 10:0 11:0 12:0 13:0 14:0 15:1 16:1.2 17:382.39999 18:544.79999 19:1.8 20:693 21:1759370 # 1
-5.2150728627442995e-013 1:8 2:0 3:3540 4:382 5:347 6:7.3899999 7:2 8:187167 9:18673 10:0 11:0 12:0 13:0 14:0 15:0 16:0 17:347.89999 18:500.60001 19:2.8 20:8310 21:1860712 # 1
5.2150728627442995e-013 1:2 2:0 3:801 4:68 5:47 6:0.60000002 7:2.2 8:171773 9:20095 10:0 11:0 12:0 13:0 14:0 15:9.8000002 16:10.2 17:56.400002 18:135.60001 19:2.5 20:3020 21:1012598 # 1
5.2150728627442995e-013 1:5 2:4 3:725 4:92 5:92 6:0.80000001 7:1.8 8:9397 9:30354 10:0 11:0 12:0 13:0 14:0 15:1 16:1 17:66 18:80.800003 19:2 20:388 21:1013008 # 1
-5.2150728627442995e-013 1:8 2:0 3:2418 4:364 5:325 6:7 7:2 8:197265 9:36000 10:0 11:0 12:0 13:0 14:0 15:0 16:0 17:343.39999 18:498.39999 19:2.2 20:2103 21:1768178 # 1
5.2150728627442995e-013 1:0 2:0 3:1308 4:95 5:53 6:0.2 7:0.2 8:212600 9:31039 10:0 11:0 12:0 13:0 14:0 15:4 16:4.8000002 17:18.200001 18:104 19:2 20:361 21:1032442 # 1
-5.2150728627442995e-013 1:10 2:1 3:4460 4:524 5:419 6:7 7:1.8 8:441130 9:16790 10:0 11:0 12:0 13:0 14:0 15:0.2 16:0.40000001 17:345 18:508.79999 19:3.5999999 20:442 21:1744293 # 1
5.2150728627442995e-013 1:19 2:27 3:1400 4:40 5:35 6:0.2 7:0.2 8:24161 9:20345 10:1 11:1.8 12:1.4 13:0 14:0 15:1.6 16:2.5999999 17:15.6 18:30.4 19:1 20:182 21:1014530 # 1
-5.2150728627442995e-013 1:56 2:31 3:6025 4:509 5:410 6:6.5999999 7:10.4 8:357773 9:269817 10:0 11:0 12:0 13:0 14:0 15:1.2 16:1.4 17:471.79999 18:548.40002 19:4.8000002 20:2450 21:1644301 # 1
5.2150728627442995e-013 1:0 2:0 3:1603 4:126 5:76 6:0.80000001 7:1 8:187135 9:37253 10:2.5999999 11:4.5999999 12:4.1999998 13:0 14:0 15:0.80000001 16:0.80000001 17:59.400002 18:95 19:1 20:281 21:1015630 # 1
-5.2150728627442995e-013 1:9 2:0 3:3524 4:392 5:321 6:7.1999998 7:3 8:314063 9:8169 10:0 11:0 12:0 13:0 14:0 15:0 16:0 17:360.60001 18:523.79999 19:2.2 20:6596 21:1871922 # 1
5.2150728627442995e-013 1:13 2:11 3:1213 4:139 5:129 6:2 7:1 8:170892 9:33003 10:0 11:0 12:0 13:0 14:0.2 15:0.80000001 16:0.80000001 17:121.6 18:141.39999 19:1 20:856 21:998221 # 1
-5.2150728627442995e-013 1:518 2:8 3:1623 4:107 5:102 6:2.4000001 7:0.80000001 8:73351 9:37095 10:0 11:0 12:0 13:0 14:0 15:111.6 16:112 17:120.2 18:173 19:1.4 20:3024 21:1845179 # 1
5.2150728627442995e-013 1:6 2:5 3:689 4:75 5:51 6:0.60000002 7:0.40000001 8:110658 9:21332 10:5.1999998 11:6.1999998 12:6.8000002 13:5.4000001 14:6 15:2.8 16:3.4000001 17:49.200001 18:72.599998 19:1 20:139 21:1024010 # 1
-5.2150728627442995e-013 1:40 2:10 3:6410 4:450 5:400 6:9.8000002 7:10.6 8:216352 9:40236 10:0 11:0 12:0 13:0 14:0 15:0 16:0 17:588.59998 18:794 19:3.5999999 20:1157 21:1540979 # 1
5.2150728627442995e-013 1:3 2:0 3:1514 4:58 5:51 6:1 7:1 8:43703 9:26727 10:1.8 11:2.4000001 12:2 13:0 14:0 15:1.4 16:2.4000001 17:81.360001 18:100.8 19:1 20:208 21:1001206 # 1
5.2150728627442995e-013 1:7 2:4 3:3338 4:734 5:110 6:1 7:1.4 8:2408325 9:41666 10:0 11:0 12:0 13:0 14:0.80000001 15:10.2 16:15.2 17:82.199997 18:172.2 19:1.7 20:2443 21:1088307 # 1
5.2150728627442995e-013 1:3 2:0 3:1391 4:56 5:37 6:0.60000002 7:0.60000002 8:91372 9:17434 10:0 11:0 12:0 13:0 14:0.60000002 15:0.2 16:0.2 17:49.700001 18:74.650002 19:1.5 20:1600 21:1022271 # 1
-5.2150728627442995e-013 1:85 2:42 3:1373 4:97 5:89 6:8 7:8.1999998 8:126563 9:110550 10:0 11:0 12:0 13:0 14:0 15:10.4 16:18.799999 17:382.79999 18:597.40002 19:2.4000001 20:6206 21:1835318 # 1
5.2150728627442995e-013 1:1 2:1 3:764 4:96 5:49 6:0.2 7:0.2 8:241669 9:21943 10:0 11:0 12:0 13:0 14:0 15:1.6 16:2.6099999 17:16.030001 18:22.85 19:2.5 20:539 21:1038814 # 1
-5.2150728627442995e-013 1:8 2:0 3:2802 4:408 5:355 6:8.3800001 7:2.2 8:233031 9:12990 10:0 11:0 12:0 13:0 14:0 15:0 16:0 17:390.01999 18:560.47998 19:3.2 20:7298 21:1859602 # 1
5.2150728627442995e-013 1:1 2:0 3:1425 4:137 5:88 6:0.2 7:0.2 8:186378 9:24064 10:1.6 11:2 12:2 13:0 14:0.40000001 15:1 16:1 17:18.799999 18:37.799999 19:1 20:364 21:1016707 # 1
-5.2150728627442995e-013 1:8 2:1 3:2327 4:347 5:318 6:6.9899998 7:2 8:183514 9:21399 10:0 11:0 12:0 13:0 14:0 15:0 16:0 17:337.13 18:487.23001 19:2.8 20:6117 21:1852802 # 1
5.2150728627442995e-013 1:1 2:0 3:1956 4:72 5:75 6:0.2 7:0.2 8:104757 9:19342 10:0 11:0 12:0 13:0 14:0 15:0.40000001 16:0.40000001 17:15.97 18:17.76 19:1 20:1264 21:1056591 # 1
-5.2150728627442995e-013 1:7 2:0 3:3185 4:402 5:344 6:7.7800002 7:2.4000001 8:264732 9:12848 10:0 11:0 12:0 13:0 14:0 15:0 16:0 17:392.01999 18:534.13 19:2 20:7821 21:1858842 # 1
5.2150728627442995e-013 1:15 2:14 3:681 4:97 5:60 6:0.60000002 7:2.4000001 8:36367 9:35582 10:0 11:0 12:0 13:0 14:0 15:4.9899998 16:4.9899998 17:48.5 18:99.599998 19:1 20:801 21:1016639 # 1
-5.2150728627442995e-013 1:86 2:78 3:6870 4:484 5:356 6:8.1999998 7:15 8:344994 9:151519 10:0 11:0 12:0 13:0 14:0.2 15:28.6 16:33.200001 17:469 18:725.40002 19:5.4000001 20:512 21:1539402 # 1
5.2150728627442995e-013 1:4 2:1 3:2632 4:439 5:108 6:0.80000001 7:1.4 8:520684 9:85619 10:7.1900001 11:14.37 12:14.37 13:0 14:4.79 15:15.77 16:16.17 17:56.689999 18:125.15 19:5.1999998 20:303 21:974881 # 1
-5.2150728627442995e-013 1:796 2:14 3:1627 4:15 5:28 6:0.2 7:0.2 8:1487 9:64857 10:0 11:0 12:0 13:0 14:0 15:94.400002 16:94.400002 17:15.6 18:16.799999 19:1.8 20:3059 21:1845336 # 1
5.2150728627442995e-013 1:0 2:0 3:1106 4:66 5:98 6:0 7:0 8:5108 9:25493 10:0 11:0 12:0 13:0 14:0 15:0.40000001 16:0.40000001 17:2.4000001 18:4 19:1.5 20:464 21:1045976 # 1
-5.2150728627442995e-013 1:9 2:1 3:2772 4:465 5:380 6:7.1999998 7:1.8 8:527107 9:8114 10:0 11:0 12:0 13:0 14:0 15:0 16:0 17:347 18:486.60001 19:2.4000001 20:6602 21:1872614 # 1
5.2150728627442995e-013 1:3 2:2 3:933 4:66 5:74 6:0.40000001 7:0.40000001 8:5198 9:20851 10:0 11:0 12:0 13:0 14:0 15:1.4 16:1.4 17:35 18:53 19:1.5 20:3042 21:1013574 # 1
-5.2150728627442995e-013 1:4 2:0 3:655 4:78 5:98 6:2.5999999 7:3.4000001 8:272364 9:232714 10:0 11:0 12:0 13:0 14:0 15:30.4 16:58.599998 17:187.60001 18:198.60001 19:2.4000001 20:2060 21:1795691 # 1
5.2150728627442995e-013 1:1 2:0 3:632 4:101 5:49 6:0.2 7:0.2 8:195165 9:31251 10:2.5999999 11:4.8000002 12:4.8000002 13:0 14:0 15:0.2 16:0.2 17:15.6 18:25.4 19:1 20:148 21:1037008 # 1
-5.2150728627442995e-013 1:34 2:34 3:2883 4:447 5:396 6:7.7800002 7:2 8:225955 9:20663 10:0 11:0 12:0 13:0 14:0 15:0 16:0 17:361.28 18:517.56 19:3.2 20:260 21:1734611 # 1
5.2150728627442995e-013 1:58 2:73 3:1214 4:327 5:105 6:0.80000001 7:2.5999999 8:332602 9:24428 10:0 11:0 12:0 13:0 14:0.60000002 15:41 16:53.400002 17:59.799999 18:198.60001 19:1 20:692 21:986238 # 1
-5.2150728627442995e-013 1:54 2:9 3:3984 4:164 5:100 6:10.8 7:20.799999 8:391435 9:512821 10:65.199997 11:135.8 12:140 13:83.800003 14:4.1999998 15:15 16:16.799999 17:473.20001 18:836.59998 19:6.1999998 20:166 21:1525998 # 1
5.2150728627442995e-013 1:5 2:2 3:2073 4:73 5:62 6:0.2 7:0.2 8:9212 9:28959 10:0.80000001 11:0.80000001 12:0.80000001 13:0 14:0.40000001 15:2.2 16:2.2 17:16.6 18:51.400002 19:2 20:278 21:1014352 # 1
-5.2150728627442995e-013 1:230 2:170 3:7266 4:608 5:475 6:6.1999998 7:9 8:510565 9:259471 10:0 11:0 12:0 13:0 14:0.60000002 15:4.4000001 16:5 17:380.60001 18:544.59998 19:5.1999998 20:545 21:1530973 # 1
5.2150728627442995e-013 1:1 2:0 3:775 4:72 5:45 6:0.2 7:0.40000001 8:95931 9:13822 10:0 11:0 12:0 13:0 14:0 15:0.2 16:0.2 17:27.450001 18:27.860001 19:1 20:761 21:1043072 # 1
-5.2150728627442995e-013 1:25 2:8 3:7720 4:428 5:353 6:6 7:9.3999996 8:167410 9:76019 10:0 11:0 12:0 13:0 14:0.60000002 15:0.60000002 16:0.60000002 17:372.60001 18:441.39999 19:3.5999999 20:3263 21:1549171 # 1
5.2150728627442995e-013 1:23 2:33 3:765 4:78 5:50 6:0.2 7:0.2 8:177869 9:46901 10:4.1999998 11:7.5999999 12:6.1999998 13:0.60000002 14:0.60000002 15:4.4000001 16:6.1999998 17:22.6 18:36.599998 19:3 20:145 21:1037312 # 1
-5.2150728627442995e-013 1:11 2:0 3:5423 4:585 5:508 6:8.1800003 7:2.2 8:455277 9:27670 10:0.60000002 11:0.60000002 12:0.60000002 13:0 14:1.6 15:1.8 16:2.99 17:413.76999 18:589.82001 19:4.4000001 20:276 21:1706392 # 1
5.2150728627442995e-013 1:35 2:23 3:1686 4:107 5:67 6:1.4 7:2.5999999 8:221992 9:21091 10:0 11:0 12:0 13:0 14:0 15:0.40000001 16:0.60000002 17:94.599998 18:151 19:1 20:1874 21:1008506 # 1
-5.2150728627442995e-013 1:20 2:6 3:9388 4:631 5:503 6:9.3800001 7:9.9799995 8:409706 9:81338 10:4.3899999 11:4.79 12:4.79 13:0 14:10.38 15:2.5899999 16:3.3900001 17:519.56 18:776.04999 19:7 20:200 21:1506469 # 1
5.2150728627442995e-013 1:4 2:1 3:3201 4:199 5:117 6:0.80000001 7:0.80000001 8:361096 9:41257 10:4 11:5.5999999 12:10.2 13:8.8000002 14:9.3999996 15:3 16:4.8000002 17:60.200001 18:80.199997 19:1 20:156 21:975768 # 1
-5.2150728627442995e-013 1:7 2:0 3:1648 4:87 5:34 6:5.5999999 7:21.4 8:160372 9:9952 10:0 11:0 12:0 13:0 14:0 15:6.4000001 16:7.5999999 17:290.20001 18:445 19:2.2 20:791 21:1750378 # 1
5.2150728627442995e-013 1:0 2:0 3:1892 4:143 5:102 6:0.2 7:0.2 8:268383 9:61995 10:14.8 11:18.4 12:18.4 13:0 14:15.4 15:3.2 16:5.1999998 17:18.799999 18:46.799999 19:1.5 20:197 21:1016394 # 1
-5.2150728627442995e-013 1:87 2:7 3:3754 4:206 5:185 6:10.8 7:8.1999998 8:35220 9:86724 10:0 11:0 12:0 13:0 14:0 15:18.4 16:18.799999 17:344 18:619 19:2.2 20:453 21:1716659 # 1
5.2150728627442995e-013 1:5 2:0 3:883 4:47 5:52 6:1 7:2.5999999 8:18899 9:19440 10:3.8 11:4.5999999 12:4.1999998 13:0 14:1 15:2 16:2.2 17:56.799999 18:98 19:1 20:276 21:1016429 # 1
-5.2150728627442995e-013 1:7 2:0 3:2820 4:373 5:332 6:6.8000002 7:1.8 8:173582 9:20888 10:2 11:2.4000001 12:2.4000001 13:0 14:0.40000001 15:0.40000001 16:0.60000002 17:319.39999 18:462.20001 19:4.1999998 20:143 21:1751645 # 1
5.2150728627442995e-013 1:1 2:1 3:1336 4:76 5:53 6:0.2 7:0.2 8:4384 9:19359 10:0 11:0 12:0 13:0 14:0 15:1 16:1 17:21.200001 18:32 19:2 20:2965 21:1014437 # 1
-5.2150728627442995e-013 1:8 2:0 3:2661 4:400 5:353 6:8 7:2.2 8:189718 9:9267 10:0 11:0 12:0 13:0 14:0 15:0 16:0 17:368.79999 18:538.79999 19:2.2 20:7073 21:1859928 # 1
5.2150728627442995e-013 1:1 2:0 3:1451 4:70 5:58 6:0.2 7:0.2 8:2748 9:18127 10:0 11:0 12:0 13:0 14:0 15:1.6 16:1.6 17:15.57 18:35.529999 19:2 20:361 21:1014422 # 1
-5.2150728627442995e-013 1:8 2:1 3:1845 4:203 5:174 6:7.8000002 7:4.1999998 8:209312 9:137191 10:0 11:0 12:0 13:0 14:0 15:1.2 16:1.2 17:381 18:565 19:2.8 20:6634 21:1848373 # 1
5.2150728627442995e-013 1:5 2:4 3:1806 4:83 5:61 6:0.2 7:0.2 8:6241 9:28631 10:5.1900001 11:6.1900001 12:5.3899999 13:0 14:1.4 15:0 16:0 17:19.16 18:30.940001 19:1.5 20:287 21:1015270 # 1
-5.2150728627442995e-013 1:7 2:1 3:919 4:113 5:76 6:3.8 7:3 8:216713 9:65818 10:0 11:0 12:0 13:0 14:0 15:2.4000001 16:2.4000001 17:322.20001 18:404 19:2.4000001 20:1197 21:1791611 # 1
5.2150728627442995e-013 1:5 2:1 3:734 4:71 5:80 6:0.40000001 7:0.40000001 8:17817 9:27947 10:0 11:0 12:0 13:0 14:0 15:0.60000002 16:0.60000002 17:36 18:101.6 19:1 20:834 21:1035170 # 1
